{"learner":{"attributes":{"scikit_learn":"{\"_estimator_type\": \"classifier\"}"},"feature_names":["OPEN","HIGH","LOW","CLOSE","RSI_14","STOCHK_14_3_3","STOCHD_14_3_3","STOCHH_14_3_3","MACD_12_26_9","MACDH_12_26_9","MACDS_12_26_9","EMA_36","EMA_89","EMA_200","CDL_2CROWS","CDL_3BLACKCROWS","CDL_3INSIDE","CDL_3LINESTRIKE","CDL_3OUTSIDE","CDL_3STARSINSOUTH","CDL_3WHITESOLDIERS","CDL_ABANDONEDBABY","CDL_ADVANCEBLOCK","CDL_BELTHOLD","CDL_BREAKAWAY","CDL_CLOSINGMARUBOZU","CDL_CONCEALBABYSWALL","CDL_COUNTERATTACK","CDL_DARKCLOUDCOVER","CDL_DOJI_10_0.1","CDL_DOJISTAR","CDL_DRAGONFLYDOJI","CDL_ENGULFING","CDL_EVENINGDOJISTAR","CDL_EVENINGSTAR","CDL_GAPSIDESIDEWHITE","CDL_GRAVESTONEDOJI","CDL_HAMMER","CDL_HANGINGMAN","CDL_HARAMI","CDL_HARAMICROSS","CDL_HIGHWAVE","CDL_HIKKAKE","CDL_HIKKAKEMOD","CDL_HOMINGPIGEON","CDL_IDENTICAL3CROWS","CDL_INNECK","CDL_INSIDE","CDL_INVERTEDHAMMER","CDL_KICKING","CDL_KICKINGBYLENGTH","CDL_LADDERBOTTOM","CDL_LONGLEGGEDDOJI","CDL_LONGLINE","CDL_MARUBOZU","CDL_MATCHINGLOW","CDL_MATHOLD","CDL_MORNINGDOJISTAR","CDL_MORNINGSTAR","CDL_ONNECK","CDL_PIERCING","CDL_RICKSHAWMAN","CDL_RISEFALL3METHODS","CDL_SEPARATINGLINES","CDL_SHOOTINGSTAR","CDL_SHORTLINE","CDL_SPINNINGTOP","CDL_STALLEDPATTERN","CDL_STICKSANDWICH","CDL_TAKURI","CDL_TASUKIGAP","CDL_THRUSTING","CDL_TRISTAR","CDL_UNIQUE3RIVER","CDL_UPSIDEGAP2CROWS","CDL_XSIDEGAP3METHODS","H1_TREND_EMA200","M15_S","M15_R","H1_S","H1_R","H4_S","H4_R","DIST_EMA_36","DIST_EMA_89","DIST_EMA_200","CANDLE_BODY","CANDLE_UPPER_WICK","CANDLE_LOWER_WICK","CANDLE_RANGE","TIME_HOUR","TIME_DAYOFWEEK","DIST_M15_S","DIST_M15_R","DIST_H1_S","DIST_H1_R","DIST_H4_S","DIST_H4_R"],"feature_types":["float","float","float","float","float","float","float","float","float","float","float","float","float","float","float","float","float","float","float","float","float","float","float","float","float","float","float","float","float","float","float","float","float","float","float","float","float","float","float","float","float","float","float","float","float","float","float","float","float","float","float","float","float","float","float","float","float","float","float","float","float","float","float","float","float","float","float","float","float","float","float","float","float","float","float","float","float","float","float","float","float","float","float","float","float","float","float","float","float","float","int","int","float","float","float","float","float","float"],"gradient_booster":{"model":{"gbtree_model_param":{"num_parallel_tree":"1","num_trees":"600"},"iteration_indptr":[0,3,6,9,12,15,18,21,24,27,30,33,36,39,42,45,48,51,54,57,60,63,66,69,72,75,78,81,84,87,90,93,96,99,102,105,108,111,114,117,120,123,126,129,132,135,138,141,144,147,150,153,156,159,162,165,168,171,174,177,180,183,186,189,192,195,198,201,204,207,210,213,216,219,222,225,228,231,234,237,240,243,246,249,252,255,258,261,264,267,270,273,276,279,282,285,288,291,294,297,300,303,306,309,312,315,318,321,324,327,330,333,336,339,342,345,348,351,354,357,360,363,366,369,372,375,378,381,384,387,390,393,396,399,402,405,408,411,414,417,420,423,426,429,432,435,438,441,444,447,450,453,456,459,462,465,468,471,474,477,480,483,486,489,492,495,498,501,504,507,510,513,516,519,522,525,528,531,534,537,540,543,546,549,552,555,558,561,564,567,570,573,576,579,582,585,588,591,594,597,600],"tree_info":[0,1,2,0,1,2,0,1,2,0,1,2,0,1,2,0,1,2,0,1,2,0,1,2,0,1,2,0,1,2,0,1,2,0,1,2,0,1,2,0,1,2,0,1,2,0,1,2,0,1,2,0,1,2,0,1,2,0,1,2,0,1,2,0,1,2,0,1,2,0,1,2,0,1,2,0,1,2,0,1,2,0,1,2,0,1,2,0,1,2,0,1,2,0,1,2,0,1,2,0,1,2,0,1,2,0,1,2,0,1,2,0,1,2,0,1,2,0,1,2,0,1,2,0,1,2,0,1,2,0,1,2,0,1,2,0,1,2,0,1,2,0,1,2,0,1,2,0,1,2,0,1,2,0,1,2,0,1,2,0,1,2,0,1,2,0,1,2,0,1,2,0,1,2,0,1,2,0,1,2,0,1,2,0,1,2,0,1,2,0,1,2,0,1,2,0,1,2,0,1,2,0,1,2,0,1,2,0,1,2,0,1,2,0,1,2,0,1,2,0,1,2,0,1,2,0,1,2,0,1,2,0,1,2,0,1,2,0,1,2,0,1,2,0,1,2,0,1,2,0,1,2,0,1,2,0,1,2,0,1,2,0,1,2,0,1,2,0,1,2,0,1,2,0,1,2,0,1,2,0,1,2,0,1,2,0,1,2,0,1,2,0,1,2,0,1,2,0,1,2,0,1,2,0,1,2,0,1,2,0,1,2,0,1,2,0,1,2,0,1,2,0,1,2,0,1,2,0,1,2,0,1,2,0,1,2,0,1,2,0,1,2,0,1,2,0,1,2,0,1,2,0,1,2,0,1,2,0,1,2,0,1,2,0,1,2,0,1,2,0,1,2,0,1,2,0,1,2,0,1,2,0,1,2,0,1,2,0,1,2,0,1,2,0,1,2,0,1,2,0,1,2,0,1,2,0,1,2,0,1,2,0,1,2,0,1,2,0,1,2,0,1,2,0,1,2,0,1,2,0,1,2,0,1,2,0,1,2,0,1,2,0,1,2,0,1,2,0,1,2,0,1,2,0,1,2,0,1,2,0,1,2,0,1,2,0,1,2,0,1,2,0,1,2,0,1,2,0,1,2,0,1,2,0,1,2,0,1,2,0,1,2,0,1,2,0,1,2,0,1,2,0,1,2,0,1,2,0,1,2,0,1,2,0,1,2,0,1,2,0,1,2,0,1,2,0,1,2,0,1,2,0,1,2,0,1,2,0,1,2,0,1,2,0,1,2,0,1,2,0,1,2,0,1,2,0,1,2,0,1,2,0,1,2,0,1,2,0,1,2,0,1,2,0,1,2,0,1,2,0,1,2,0,1,2,0,1,2,0,1,2,0,1,2,0,1,2,0,1,2],"trees":[{"base_weights":[1.2753694E-1,2.3493366E-1,-1.8800966E-1,3.3254657E-2,4.6100035E-1,-3.0204025E-1,7.9103194E-2,-4.1255124E-2,3.4161702E-1,4.9832848E-1,1.968341E-1,-3.4146142E-1,3.4230657E-2,3.148578E-1,2.4405387E-3,-1.4842683E-1,1.0283727E-1,6.649624E-1,2.8688896E-1,2.7902237E-1,5.349877E-1,-4.8837215E-1,2.3221602E-1,-3.6004463E-1,7.999996E-2,5.0363294E-3,6.420233E-1,-2.068966E-1,4.2174378E-1,-3.4458864E-2,4.2825925E-1,-2.6086962E-2,-5.354075E-3,-1.4020664E-3,2.3829762E-2,5.193922E-2,1.0948379E-1,2.4008432E-2,5.8841348E-2,1.775055E-2,4.1784372E-2,4.5869227E-2,6.268769E-2,-5.4943282E-2,6.486487E-2,5.1309075E-2,1.4512563E-2,-4.326841E-2,-2.7706344E-2,-1.132076E-2,3.1270355E-2,5.8358658E-2,-3.2731646E-3,-1.2371139E-2,1.0473373E-1,3.8532108E-2,-2.8004674E-2,9.888E-2,3.328369E-2,-1.904407E-2,1.8501265E-3,5.3230472E-2,1.0434779E-2],"categories":[],"categories_nodes":[],"categories_segments":[],"categories_sizes":[],"default_left":[0,0,0,0,0,0,0,0,0,0,0,0,0,0,0,0,0,0,0,0,0,0,0,0,0,0,0,0,0,0,0,0,0,0,0,0,0,0,0,0,0,0,0,0,0,0,0,0,0,0,0,0,0,0,0,0,0,0,0,0,0,0,0],"id":0,"left_children":[1,3,5,7,9,11,13,15,17,19,21,23,25,27,29,31,33,35,37,39,41,43,45,47,49,51,53,55,57,59,61,-1,-1,-1,-1,-1,-1,-1,-1,-1,-1,-1,-1,-1,-1,-1,-1,-1,-1,-1,-1,-1,-1,-1,-1,-1,-1,-1,-1,-1,-1,-1,-1],"loss_changes":[1.1293389E3,1.1335304E3,2.5777838E2,3.0194186E2,1.154939E2,7.8631226E1,4.5771564E1,1.634686E2,4.506595E1,8.241992E1,3.5339813E1,4.1605957E1,1.1055283E1,3.474411E1,3.0058722E1,6.475197E1,7.147757E1,2.2550095E1,3.0751526E1,2.0684387E1,6.139502E1,5.3320084E0,3.3739464E1,3.052832E1,1.015142E1,1.3034818E1,8.992154E0,4.714352E0,2.5690727E1,1.454715E1,5.085808E0,0E0,0E0,0E0,0E0,0E0,0E0,0E0,0E0,0E0,0E0,0E0,0E0,0E0,0E0,0E0,0E0,0E0,0E0,0E0,0E0,0E0,0E0,0E0,0E0,0E0,0E0,0E0,0E0,0E0,0E0,0E0,0E0],"parents":[2147483647,0,0,1,1,2,2,3,3,4,4,5,5,6,6,7,7,8,8,9,9,10,10,11,11,12,12,13,13,14,14,15,15,16,16,17,17,18,18,19,19,20,20,21,21,22,22,23,23,24,24,25,25,26,26,27,27,28,28,29,29,30,30],"right_children":[2,4,6,8,10,12,14,16,18,20,22,24,26,28,30,32,34,36,38,40,42,44,46,48,50,52,54,56,58,60,62,-1,-1,-1,-1,-1,-1,-1,-1,-1,-1,-1,-1,-1,-1,-1,-1,-1,-1,-1,-1,-1,-1,-1,-1,-1,-1,-1,-1,-1,-1,-1,-1],"split_conditions":[1.8E1,1E1,2.41E0,2.178365E3,1.7E1,2.38192E3,-6.596E1,1.55E0,-4.616E1,1.1E1,5.55E0,4.706E1,2.79009E3,5.55E0,6.14E0,5E0,6E0,-1.1939855E1,2.61232E3,2.61E0,1.95833E3,-3.712E1,-5.111E1,1.4E0,8.46E1,-2.168065E1,-3.684489E0,-1.5097E2,5.71E0,1.81052E3,-7.12E0,-2.6086962E-2,-5.354075E-3,-1.4020664E-3,2.3829762E-2,5.193922E-2,1.0948379E-1,2.4008432E-2,5.8841348E-2,1.775055E-2,4.1784372E-2,4.5869227E-2,6.268769E-2,-5.4943282E-2,6.486487E-2,5.1309075E-2,1.4512563E-2,-4.326841E-2,-2.7706344E-2,-1.132076E-2,3.1270355E-2,5.8358658E-2,-3.2731646E-3,-1.2371139E-2,1.0473373E-1,3.8532108E-2,-2.8004674E-2,9.888E-2,3.328369E-2,-1.904407E-2,1.8501265E-3,5.3230472E-2,1.0434779E-2],"split_indices":[90,90,89,12,90,82,97,89,93,90,96,94,82,96,89,90,90,85,81,89,82,97,97,89,96,85,10,97,92,77,93,0,0,0,0,0,0,0,0,0,0,0,0,0,0,0,0,0,0,0,0,0,0,0,0,0,0,0,0,0,0,0,0],"split_type":[0,0,0,0,0,0,0,0,0,0,0,0,0,0,0,0,0,0,0,0,0,0,0,0,0,0,0,0,0,0,0,0,0,0,0,0,0,0,0,0,0,0,0,0,0,0,0,0,0,0,0,0,0,0,0,0,0,0,0,0,0,0,0],"sum_hessian":[3.3322664E4,2.4861332E4,8.461333E3,1.3139999E4,1.1721333E4,5.9297773E3,2.5315554E3,1.0583555E4,2.5564443E3,1.0269333E4,1.4519999E3,5.307555E3,6.2222217E2,6.204444E2,1.911111E3,6.069333E3,4.514222E3,3.6844443E2,2.1879998E3,1.4719999E3,8.797333E3,7.0666664E1,1.3813333E3,5.083555E3,2.2399998E2,5.946666E2,2.7555553E1,1.0533333E2,5.151111E2,1.7595554E3,1.5155554E2,2.7768887E3,3.2924443E3,2.4239998E3,2.0902222E3,2.768889E2,9.155555E1,1.8955554E3,2.9244443E2,8.515555E2,6.204444E2,4.8097773E3,3.9875554E3,6.755555E1,3.111111E0,3.2577777E2,1.0555555E3,2.7084443E3,2.375111E3,1.2266666E2,1.0133333E2,3.5555553E1,5.591111E2,9.777777E0,1.7777777E1,1.1111111E1,9.422221E1,6.844444E1,4.4666663E2,4.453333E2,1.3142222E3,1.1422221E2,3.7333332E1],"tree_param":{"num_deleted":"0","num_feature":"98","num_nodes":"63","size_leaf_vector":"1"}},{"base_weights":[3.2223922E-1,1.699156E-1,7.6700056E-1,4.6325925E-1,-2.5211883E-1,9.041436E-1,3.3393174E-1,5.995054E-1,-8.985356E-2,-3.3071956E-1,2.2134353E-1,9.417641E-1,4.008397E-1,5.8824325E-1,1.6438724E-1,7.7650905E-1,4.198454E-1,-3.085123E-1,-1.4568418E-2,-6.789932E-2,-3.963636E-1,3.7142268E-1,-2.2465758E-1,9.897567E-1,6.996762E-1,4.8617572E-1,-3.7777784E-1,1.01773284E-1,6.9147E-1,-1.4658715E-1,2.6383078E-1,3.6905926E-2,8.197141E-2,-1.6641498E-3,4.756483E-2,4.9533336E-3,-4.025015E-2,1.3892086E-2,-1.6373083E-2,1.2587409E-2,-3.2894548E-2,-3.305651E-2,-5.957201E-2,1.0175438E-1,3.3520818E-2,-2.6748432E-2,2.4909744E-2,1.043507E-1,7.620814E-2,7.216802E-2,-8.3004E-3,5.3278446E-2,-1.3793108E-2,-4.3511458E-2,8.571428E-2,4.142259E-2,-2.8013587E-2,8.928148E-2,2.2989742E-2,1.4904183E-2,-4.7072604E-2,4.3655913E-2,9.086569E-3],"categories":[],"categories_nodes":[],"categories_segments":[],"categories_sizes":[],"default_left":[0,0,0,0,0,0,0,0,0,0,0,0,0,0,0,0,0,0,0,0,0,0,0,0,0,0,0,0,0,0,0,0,0,0,0,0,0,0,0,0,0,0,0,0,0,0,0,0,0,0,0,0,0,0,0,0,0,0,0,0,0,0,0],"id":1,"left_children":[1,3,5,7,9,11,13,15,17,19,21,23,25,27,29,31,33,35,37,39,41,43,45,47,49,51,53,55,57,59,61,-1,-1,-1,-1,-1,-1,-1,-1,-1,-1,-1,-1,-1,-1,-1,-1,-1,-1,-1,-1,-1,-1,-1,-1,-1,-1,-1,-1,-1,-1,-1,-1],"loss_changes":[2.2532246E3,3.0675366E3,5.036416E2,1.1016177E3,3.781931E2,1.2163086E2,8.7962845E1,3.7264795E2,4.7568146E1,1.5031781E2,9.6953926E1,6.895703E1,3.0076141E1,4.0934357E1,3.7976025E1,1.0367944E2,1.4183472E2,2.4926453E1,4.9264435E1,8.8197716E1,9.126465E1,2.5005173E1,7.47225E0,6.0399902E1,1.7199707E1,1.1880325E1,3.5592394E0,1.7312605E1,6.238144E1,2.8615314E1,2.7741653E1,0E0,0E0,0E0,0E0,0E0,0E0,0E0,0E0,0E0,0E0,0E0,0E0,0E0,0E0,0E0,0E0,0E0,0E0,0E0,0E0,0E0,0E0,0E0,0E0,0E0,0E0,0E0,0E0,0E0,0E0,0E0,0E0],"parents":[2147483647,0,0,1,1,2,2,3,3,4,4,5,5,6,6,7,7,8,8,9,9,10,10,11,11,12,12,13,13,14,14,15,15,16,16,17,17,18,18,19,19,20,20,21,21,22,22,23,23,24,24,25,25,26,26,27,27,28,28,29,29,30,30],"right_children":[2,4,6,8,10,12,14,16,18,20,22,24,26,28,30,32,34,36,38,40,42,44,46,48,50,52,54,56,58,60,62,-1,-1,-1,-1,-1,-1,-1,-1,-1,-1,-1,-1,-1,-1,-1,-1,-1,-1,-1,-1,-1,-1,-1,-1,-1,-1,-1,-1,-1,-1,-1,-1],"split_conditions":[1.8E1,1.1E1,2.0703E3,2.22265E3,1.7E1,2.44E0,2E0,6E0,-2.0559926E0,1E0,2.06681E3,8.1E-1,5.55E0,-4.931E1,-7.263E1,-3.5893807E0,-6.213775E0,2.40196E3,2.866E1,1.95563E3,2.06681E3,5.05E0,2.6787E3,4E0,1.1083E2,1.55E0,2.06233E3,3.011E1,3.845E1,2.3599333E3,6.563E1,3.6905926E-2,8.197141E-2,-1.6641498E-3,4.756483E-2,4.9533336E-3,-4.025015E-2,1.3892086E-2,-1.6373083E-2,1.2587409E-2,-3.2894548E-2,-3.305651E-2,-5.957201E-2,1.0175438E-1,3.3520818E-2,-2.6748432E-2,2.4909744E-2,1.043507E-1,7.620814E-2,7.216802E-2,-8.3004E-3,5.3278446E-2,-1.3793108E-2,-4.3511458E-2,8.571428E-2,4.142259E-2,-2.8013587E-2,8.928148E-2,2.2989742E-2,1.4904183E-2,-4.7072604E-2,4.3655913E-2,9.086569E-3],"split_indices":[90,90,82,82,90,86,91,90,83,91,82,87,86,95,97,83,84,82,92,80,82,96,3,91,96,87,78,96,92,12,96,0,0,0,0,0,0,0,0,0,0,0,0,0,0,0,0,0,0,0,0,0,0,0,0,0,0,0,0,0,0,0,0],"split_type":[0,0,0,0,0,0,0,0,0,0,0,0,0,0,0,0,0,0,0,0,0,0,0,0,0,0,0,0,0,0,0,0,0,0,0,0,0,0,0,0,0,0,0,0,0,0,0,0,0,0,0,0,0,0,0,0,0,0,0,0,0,0,0],"sum_hessian":[3.3259996E4,2.4775998E4,8.483999E3,1.4616443E4,1.0159555E4,6.4426665E3,2.0413333E3,1.1727555E4,2.8888887E3,8.713333E3,1.4462222E3,5.9937773E3,4.4888885E2,8.155555E2,1.2257777E3,5.9057773E3,5.8217773E3,7.391111E2,2.1497776E3,1.7417777E3,6.971555E3,1.0822222E3,3.6399997E2,4.999555E3,9.9422217E2,4.0488885E2,4.3999996E1,1.431111E2,6.724444E2,2.968889E2,9.2888885E2,5.671111E2,5.3386665E3,6.5999994E2,5.1617773E3,1.5377777E2,5.853333E2,1.0595555E3,1.0902222E3,9.9999994E2,7.417777E2,5.243555E3,1.7279999E3,5.5999996E1,1.0262222E3,3.342222E2,2.9777777E1,4.0417776E3,9.577777E2,9.671111E2,2.7111109E1,3.7688885E2,2.7999998E1,4.2666664E1,1.3333333E0,7.8666664E1,6.444444E1,4.6755554E2,2.0488887E2,1.5555554E2,1.4133333E2,4.6399997E2,4.6488885E2],"tree_param":{"num_deleted":"0","num_feature":"98","num_nodes":"63","size_leaf_vector":"1"}},{"base_weights":[-4.5031053E-1,-5.06344E-1,-2.5470984E-1,-6.063344E-1,-4.4064564E-1,-2.0321551E-1,-4.024327E-1,-6.1156607E-1,4.8582952E-2,-2.800096E-1,-6.0528255E-1,-3.2961765E-1,-1.1306095E-1,-1.36239E-1,-4.645895E-1,-4.7272038E-1,-6.346397E-1,-2.3926385E-1,5.8620685E-1,-2.4143608E-1,-4.7627604E-1,-6.314107E-1,-4.5657814E-1,-4.1021463E-1,-2.1144907E-1,-6.822162E-2,-4.69533E-1,-3.6099592E-1,2.9973236E-1,-6.52368E-1,-3.882035E-1,-4.8618067E-2,9.6E-2,-6.694319E-2,-5.627991E-2,3.5944697E-2,-6.939503E-2,1.3489933E-1,-3.9669428E-2,-3.9446745E-2,-1.8179491E-2,-3.7826817E-2,-5.5932213E-2,7.826083E-3,-6.3548036E-2,-4.6910584E-2,4.1176468E-2,1.2631579E-1,-4.177247E-2,6.439024E-2,-2.326292E-2,-1.2912667E-2,2.444603E-2,1.0909092E-1,-4.8426308E-2,1.8271117E-2,-5.2486528E-2,5.785997E-2,-2.7345851E-2,2.181818E-2,-6.879031E-2,-4.241137E-2,-7.5217015E-3],"categories":[],"categories_nodes":[],"categories_segments":[],"categories_sizes":[],"default_left":[0,0,0,0,0,0,0,0,0,0,0,0,0,0,0,0,0,0,0,0,0,0,0,0,0,0,0,0,0,0,0,0,0,0,0,0,0,0,0,0,0,0,0,0,0,0,0,0,0,0,0,0,0,0,0,0,0,0,0,0,0,0,0],"id":2,"left_children":[1,3,5,7,9,11,13,15,17,19,21,23,25,27,29,31,33,35,37,39,41,43,45,47,49,51,53,55,57,59,61,-1,-1,-1,-1,-1,-1,-1,-1,-1,-1,-1,-1,-1,-1,-1,-1,-1,-1,-1,-1,-1,-1,-1,-1,-1,-1,-1,-1,-1,-1,-1,-1],"loss_changes":[3.652505E2,1.6995752E2,5.640277E1,3.522534E1,4.134939E2,6.273169E1,3.167694E1,3.2347656E1,1.2881616E1,5.983557E1,2.9721191E1,2.174762E1,5.138128E1,3.5830112E1,2.2047913E1,2.8547577E1,2.1458008E1,1.5040364E1,2.2277702E1,6.0349823E1,1.0366638E1,1.9015625E1,1.2789093E1,1.7642685E1,1.7028278E1,5.4465393E1,8.785164E0,2.156826E1,2.0067703E1,1.4012436E1,1.2417618E1,0E0,0E0,0E0,0E0,0E0,0E0,0E0,0E0,0E0,0E0,0E0,0E0,0E0,0E0,0E0,0E0,0E0,0E0,0E0,0E0,0E0,0E0,0E0,0E0,0E0,0E0,0E0,0E0,0E0,0E0,0E0,0E0],"parents":[2147483647,0,0,1,1,2,2,3,3,4,4,5,5,6,6,7,7,8,8,9,9,10,10,11,11,12,12,13,13,14,14,15,15,16,16,17,17,18,18,19,19,20,20,21,21,22,22,23,23,24,24,25,25,26,26,27,27,28,28,29,29,30,30],"right_children":[2,4,6,8,10,12,14,16,18,20,22,24,26,28,30,32,34,36,38,40,42,44,46,48,50,52,54,56,58,60,62,-1,-1,-1,-1,-1,-1,-1,-1,-1,-1,-1,-1,-1,-1,-1,-1,-1,-1,-1,-1,-1,-1,-1,-1,-1,-1,-1,-1,-1,-1,-1,-1],"split_conditions":[2.0703E3,1E1,1.8E1,1.3084E2,1.7E1,8E0,2.27738E3,-6.509E1,2.4641117E1,-9.34E0,1.99E0,6.783E1,-8.08E0,2.22265E3,2.3767092E3,1.6340467E0,4.561E1,2.557E1,4.8553033E0,1.2E1,2.617E1,1.66093E3,1.4394E2,2.0337092E3,-9.062E1,-8.17E0,1.785E1,1.98982E3,1.356E2,2.3525E3,2.5654118E1,-4.8618067E-2,9.6E-2,-6.694319E-2,-5.627991E-2,3.5944697E-2,-6.939503E-2,1.3489933E-1,-3.9669428E-2,-3.9446745E-2,-1.8179491E-2,-3.7826817E-2,-5.5932213E-2,7.826083E-3,-6.3548036E-2,-4.6910584E-2,4.1176468E-2,1.2631579E-1,-4.177247E-2,6.439024E-2,-2.326292E-2,-1.2912667E-2,2.444603E-2,1.0909092E-1,-4.8426308E-2,1.8271117E-2,-5.2486528E-2,5.785997E-2,-2.7345851E-2,2.181818E-2,-6.879031E-2,-4.241137E-2,-7.5217015E-3],"split_indices":[80,90,90,96,90,90,81,97,85,97,86,96,97,80,11,9,96,92,83,90,92,78,96,13,97,93,92,81,96,82,85,0,0,0,0,0,0,0,0,0,0,0,0,0,0,0,0,0,0,0,0,0,0,0,0,0,0,0,0,0,0,0,0],"split_type":[0,0,0,0,0,0,0,0,0,0,0,0,0,0,0,0,0,0,0,0,0,0,0,0,0,0,0,0,0,0,0,0,0,0,0,0,0,0,0,0,0,0,0,0,0,0,0,0,0,0,0,0,0,0,0,0,0,0,0,0,0,0,0],"sum_hessian":[3.3335996E4,2.5911555E4,7.424444E3,1.027111E4,1.5640443E4,5.507111E3,1.9173333E3,1.0189777E4,8.133333E1,7.9177773E3,7.722666E3,2.2915554E3,3.2155554E3,3.6355554E2,1.5537777E3,1.4551111E3,8.734666E3,5.333333E1,2.7999998E1,6.619111E3,1.2986666E3,6.5657773E3,1.1568888E3,1.3608888E3,9.306666E2,2.8573333E3,3.582222E2,2.3999998E2,1.2355555E2,4.4711108E2,1.1066666E3,1.4422222E3,1.2888888E1,5.879111E3,2.8555554E3,2.311111E1,3.0222221E1,1.5555554E1,1.2444444E1,1.8546665E3,4.7644443E3,5.9822217E2,7.004444E2,3.7333332E1,6.528444E3,1.1408888E3,1.5999999E1,5.333333E0,1.3555554E3,2.1777777E1,9.0888885E2,2.3919998E3,4.653333E2,2.6666665E0,3.5555554E2,5.5555553E1,1.8444443E2,8.311111E1,4.0444443E1,1.7333332E1,4.2977774E2,9.924444E2,1.1422221E2],"tree_param":{"num_deleted":"0","num_feature":"98","num_nodes":"63","size_leaf_vector":"1"}},{"base_weights":[1.1832008E-1,2.0564719E-1,-2.129189E-1,3.4749564E-2,3.752672E-1,-3.1207785E-1,1.1305843E-2,-3.7480466E-2,3.28324E-1,4.5053393E-1,1.0539175E-1,-3.438235E-1,8.288917E-3,-6.13369E-2,2.8360596E-1,-1.4182319E-1,8.4277675E-2,6.3448143E-1,2.779604E-1,3.212036E-1,5.020089E-1,1.55317085E-2,3.796948E-1,-3.5267156E-1,3.8505432E-1,8.153321E-1,-7.1063824E-2,-1.4676316E-1,1.7498866E-1,8.2967705E-1,2.4412502E-1,-2.5676442E-2,-4.3767123E-3,-2.064672E-3,2.0242898E-2,4.982045E-2,1.01222835E-1,2.379229E-2,5.3436615E-2,6.5427676E-2,2.8870268E-2,4.8096787E-2,9.04611E-2,-1.5050419E-2,1.0855464E-2,9.310454E-2,3.420581E-2,-3.940403E-2,-2.7681608E-2,-2.7555455E-2,5.6479555E-2,9.903149E-2,-5.949561E-2,5.1479936E-2,-1.1875591E-2,-1.6782297E-2,2.7765846E-2,5.640492E-2,8.2791215E-3,9.9001475E-2,3.774124E-2,5.101175E-2,1.7851515E-2],"categories":[],"categories_nodes":[],"categories_segments":[],"categories_sizes":[],"default_left":[0,0,0,0,0,0,0,0,0,0,0,0,0,0,0,0,0,0,0,0,0,0,0,0,0,0,0,0,0,0,0,0,0,0,0,0,0,0,0,0,0,0,0,0,0,0,0,0,0,0,0,0,0,0,0,0,0,0,0,0,0,0,0],"id":3,"left_children":[1,3,5,7,9,11,13,15,17,19,21,23,25,27,29,31,33,35,37,39,41,43,45,47,49,51,53,55,57,59,61,-1,-1,-1,-1,-1,-1,-1,-1,-1,-1,-1,-1,-1,-1,-1,-1,-1,-1,-1,-1,-1,-1,-1,-1,-1,-1,-1,-1,-1,-1,-1,-1],"loss_changes":[9.7119977E2,7.701758E2,1.55754E2,2.806809E2,2.708119E2,4.9401337E1,4.252464E1,1.349778E2,4.0123657E1,6.924927E1,7.170322E1,2.8636475E1,2.816472E1,3.428952E1,9.558022E0,6.44707E1,6.0788857E1,1.8461914E1,2.2931976E1,3.1974121E1,6.272766E1,3.3878166E1,1.457724E1,1.3594116E1,6.5059586E0,1.0304913E1,1.125197E1,1.1193781E1,1.6133348E1,1.8096714E0,7.3018513E0,0E0,0E0,0E0,0E0,0E0,0E0,0E0,0E0,0E0,0E0,0E0,0E0,0E0,0E0,0E0,0E0,0E0,0E0,0E0,0E0,0E0,0E0,0E0,0E0,0E0,0E0,0E0,0E0,0E0,0E0,0E0,0E0],"parents":[2147483647,0,0,1,1,2,2,3,3,4,4,5,5,6,6,7,7,8,8,9,9,10,10,11,11,12,12,13,13,14,14,15,15,16,16,17,17,18,18,19,19,20,20,21,21,22,22,23,23,24,24,25,25,26,26,27,27,28,28,29,29,30,30],"right_children":[2,4,6,8,10,12,14,16,18,20,22,24,26,28,30,32,34,36,38,40,42,44,46,48,50,52,54,56,58,60,62,-1,-1,-1,-1,-1,-1,-1,-1,-1,-1,-1,-1,-1,-1,-1,-1,-1,-1,-1,-1,-1,-1,-1,-1,-1,-1,-1,-1,-1,-1,-1,-1],"split_conditions":[1.9E1,1E1,2.14E0,2.178365E3,1.7E1,2.40196E3,4.02E0,1.48E0,-4.595E1,1.2E1,2.0703E3,2.9118279E1,2.32274E3,2.39291E3,0E0,5E0,6E0,-1.1939855E1,2.61232E3,-8.009833E0,-4.95E0,2.49E0,2.06407E3,1.45E0,2.1E1,2.4254E3,-7.6605744E0,2.3E1,-9.493E1,-2.406E1,-9.942355E-1,-2.5676442E-2,-4.3767123E-3,-2.064672E-3,2.0242898E-2,4.982045E-2,1.01222835E-1,2.379229E-2,5.3436615E-2,6.5427676E-2,2.8870268E-2,4.8096787E-2,9.04611E-2,-1.5050419E-2,1.0855464E-2,9.310454E-2,3.420581E-2,-3.940403E-2,-2.7681608E-2,-2.7555455E-2,5.6479555E-2,9.903149E-2,-5.949561E-2,5.1479936E-2,-1.1875591E-2,-1.6782297E-2,2.7765846E-2,5.640492E-2,8.2791215E-3,9.9001475E-2,3.774124E-2,5.101175E-2,1.7851515E-2],"split_indices":[90,90,89,12,90,82,89,89,95,90,82,85,81,82,42,90,90,85,81,84,97,89,78,89,90,78,83,90,97,97,9,0,0,0,0,0,0,0,0,0,0,0,0,0,0,0,0,0,0,0,0,0,0,0,0,0,0,0,0,0,0,0,0],"split_type":[0,0,0,0,0,0,0,0,0,0,0,0,0,0,0,0,0,0,0,0,0,0,0,0,0,0,0,0,0,0,0,0,0,0,0,0,0,0,0,0,0,0,0,0,0,0,0,0,0,0,0,0,0,0,0,0,0,0,0,0,0,0,0],"sum_hessian":[3.357264E4,2.6568549E4,7.0040938E3,1.3235032E4,1.3333517E4,4.856161E3,2.1479329E3,1.0622404E4,2.6126272E3,1.0425292E4,2.9082239E3,4.4182744E3,4.3788663E2,1.6962036E3,4.5172922E2,5.720209E3,4.9021953E3,3.6743195E2,2.2451953E3,2.9701265E3,7.455166E3,2.191393E3,7.1683075E2,4.365793E3,5.248153E1,3.837058E1,3.9951605E2,1.2461339E3,4.5006973E2,2.910842E1,4.2262082E2,2.6326272E3,3.087582E3,2.5968684E3,2.3053271E3,2.7172324E2,9.57087E1,1.9436276E3,3.015676E2,2.6235483E2,2.7077717E3,7.0869756E3,3.6819034E2,7.866643E2,1.4047289E3,4.42891E1,6.725417E2,2.8223784E3,1.5434144E3,1.1111181E1,4.1370346E1,3.4400143E1,3.9704356E0,2.9337059E1,3.70179E2,1.1877998E3,5.833407E1,8.524209E1,3.6482764E2,2.0612E1,8.49642E0,8.2278046E1,3.4034277E2],"tree_param":{"num_deleted":"0","num_feature":"98","num_nodes":"63","size_leaf_vector":"1"}},{"base_weights":[2.9736483E-1,1.5902156E-1,6.893189E-1,4.5711192E-1,-1.8951862E-1,8.1074977E-1,3.024833E-1,5.8055365E-1,-6.0911577E-2,-2.4904038E-1,2.1572562E-1,8.608693E-1,5.158478E-1,5.2925307E-1,1.516222E-1,2.2541879E-1,6.2848914E-1,-2.9554984E-1,-5.282473E-3,9.860269E-2,-3.0759817E-1,3.4269878E-1,-2.0089202E-1,9.1333175E-1,6.41638E-1,5.675954E-1,-1.2373144E-1,6.7306834E-1,1.5015218E-1,-4.7501293E-1,1.982593E-1,4.5775127E-2,-1.5192229E-3,6.781169E-2,3.1186653E-2,9.602915E-3,-3.89318E-2,1.3582788E-2,-1.4224648E-2,2.0018008E-2,-2.303159E-2,-1.874028E-2,-4.574457E-2,8.8882655E-2,3.1369284E-2,-1.0062995E-2,-3.6373932E-2,7.633723E-2,9.794516E-2,6.7536145E-2,-3.6641855E-2,6.767073E-2,3.2852452E-2,-4.1551027E-2,4.7764583E-3,1.3653405E-2,8.30846E-2,-3.9095055E-2,3.624524E-2,-6.0501367E-2,4.9262294E-3,2.518268E-2,-2.0033272E-2],"categories":[],"categories_nodes":[],"categories_segments":[],"categories_sizes":[],"default_left":[0,0,0,0,0,0,0,0,0,0,0,0,0,0,0,0,0,0,0,0,0,0,0,0,0,0,0,0,0,0,0,0,0,0,0,0,0,0,0,0,0,0,0,0,0,0,0,0,0,0,0,0,0,0,0,0,0,0,0,0,0,0,0],"id":4,"left_children":[1,3,5,7,9,11,13,15,17,19,21,23,25,27,29,31,33,35,37,39,41,43,45,47,49,51,53,55,57,59,61,-1,-1,-1,-1,-1,-1,-1,-1,-1,-1,-1,-1,-1,-1,-1,-1,-1,-1,-1,-1,-1,-1,-1,-1,-1,-1,-1,-1,-1,-1,-1,-1],"loss_changes":[1.8289585E3,2.590541E3,4.1310303E2,8.594304E2,2.7731305E2,9.853516E1,7.189612E1,1.8462012E2,3.3767815E1,2.0407007E2,7.796978E1,6.522949E1,3.2348846E1,4.5701477E1,3.7057655E1,7.224855E1,1.5003882E2,1.824213E1,4.045822E1,4.834678E1,1.5441785E2,1.760588E1,5.589985E0,4.501172E1,3.7924805E1,2.3318787E1,3.7138948E0,5.1420135E1,2.683151E1,6.021223E0,2.5200615E1,0E0,0E0,0E0,0E0,0E0,0E0,0E0,0E0,0E0,0E0,0E0,0E0,0E0,0E0,0E0,0E0,0E0,0E0,0E0,0E0,0E0,0E0,0E0,0E0,0E0,0E0,0E0,0E0,0E0,0E0,0E0,0E0],"parents":[2147483647,0,0,1,1,2,2,3,3,4,4,5,5,6,6,7,7,8,8,9,9,10,10,11,11,12,12,13,13,14,14,15,15,16,16,17,17,18,18,19,19,20,20,21,21,22,22,23,23,24,24,25,25,26,26,27,27,28,28,29,29,30,30],"right_children":[2,4,6,8,10,12,14,16,18,20,22,24,26,28,30,32,34,36,38,40,42,44,46,48,50,52,54,56,58,60,62,-1,-1,-1,-1,-1,-1,-1,-1,-1,-1,-1,-1,-1,-1,-1,-1,-1,-1,-1,-1,-1,-1,-1,-1,-1,-1,-1,-1,-1,-1,-1,-1],"split_conditions":[1.8E1,1E1,2.0703E3,2.22265E3,1.7E1,9.2E-1,2E0,-6.3476267E0,-2.9699986E0,1.1E1,2.0703E3,4E0,2.6E0,3.785E1,-6.249E1,5E0,6.857E1,2.40196E3,2.761E1,2.0333201E3,1.95968E3,5.05E0,3.383E1,2E1,2.5654118E1,1.09E0,-4.634E1,-4.7E1,-1.639E1,-2.0047624E0,3.15E0,4.5775127E-2,-1.5192229E-3,6.781169E-2,3.1186653E-2,9.602915E-3,-3.89318E-2,1.3582788E-2,-1.4224648E-2,2.0018008E-2,-2.303159E-2,-1.874028E-2,-4.574457E-2,8.8882655E-2,3.1369284E-2,-1.0062995E-2,-3.6373932E-2,7.633723E-2,9.794516E-2,6.7536145E-2,-3.6641855E-2,6.767073E-2,3.2852452E-2,-4.1551027E-2,4.7764583E-3,1.3653405E-2,8.30846E-2,-3.9095055E-2,3.624524E-2,-6.0501367E-2,4.9262294E-3,2.518268E-2,-2.0033272E-2],"split_indices":[90,90,82,82,90,88,91,84,83,90,82,91,88,94,93,90,96,82,92,12,82,96,92,90,85,86,97,95,93,10,86,0,0,0,0,0,0,0,0,0,0,0,0,0,0,0,0,0,0,0,0,0,0,0,0,0,0,0,0,0,0,0,0],"split_type":[0,0,0,0,0,0,0,0,0,0,0,0,0,0,0,0,0,0,0,0,0,0,0,0,0,0,0,0,0,0,0,0,0,0,0,0,0,0,0,0,0,0,0,0,0,0,0,0,0,0,0,0,0,0,0,0,0,0,0,0,0,0,0],"sum_hessian":[3.3730586E4,2.4932037E4,8.798552E3,1.3438443E4,1.1493593E4,6.69564E3,2.1029111E3,1.085229E4,2.5861526E3,1.0021965E4,1.4716279E3,5.7213574E3,9.7428284E2,8.3909735E2,1.2638138E3,1.2912959E3,9.560994E3,4.9480392E2,2.0913486E3,1.4446653E3,8.5773E3,1.1280177E3,3.4361017E2,4.6140435E3,1.1073138E3,9.014593E2,7.282352E1,6.07762E2,2.3133536E2,8.690724E1,1.1769066E3,6.564905E2,6.348054E2,8.26447E3,1.2965243E3,9.559054E1,3.992134E2,1.0300864E3,1.0612623E3,1.1040894E3,3.4057593E2,4.7608154E3,3.8164844E3,5.539475E1,1.0726229E3,2.1367337E2,1.2993681E2,1.4157274E3,3.198316E3,1.0717883E3,3.552553E1,6.177073E2,2.8375204E2,2.6431242E1,4.6392277E1,1.3853363E2,4.692284E2,6.49505E1,1.6638486E2,6.951589E1,1.7391352E1,1.0378026E3,1.3910391E2],"tree_param":{"num_deleted":"0","num_feature":"98","num_nodes":"63","size_leaf_vector":"1"}},{"base_weights":[-4.255003E-1,-4.8162255E-1,-2.3366377E-1,-5.699072E-1,-4.052666E-1,-1.8258424E-1,-3.841935E-1,-6.2132543E-1,-5.1179874E-1,-3.6205006E-1,-5.512493E-1,-2.7625453E-1,-7.835317E-2,-4.8379967E-1,-2.47869E-1,-4.14813E-1,-6.355908E-1,-2.8799167E-1,-6.5236735E-1,-4.9369645E-1,-2.588771E-1,-5.6905615E-1,-1.6012205E-1,-3.4715822E-1,-1.7100815E-1,2.519045E-1,-1.3560832E-1,1.5708077E-1,-5.0156975E-1,-2.3808407E-2,-3.2694945E-1,-2.8326293E-2,-5.8632303E-2,-6.410474E-2,-1.6982486E-2,-4.969317E-2,-2.3161381E-2,6.536677E-2,-6.5490335E-2,4.920856E-2,-4.9739685E-2,-2.1706961E-2,-4.4624142E-2,-5.8868565E-2,-2.508208E-2,-2.1909323E-2,7.164362E-2,-4.6781912E-2,-2.5875488E-2,1.2692891E-1,-1.8047597E-2,-7.0011863E-3,4.527234E-2,-1.0045826E-2,-3.7849523E-2,8.958651E-2,-4.5335073E-2,-5.1049E-2,6.6825524E-2,-3.420326E-2,4.273204E-2,-3.8257606E-2,6.2225875E-3],"categories":[],"categories_nodes":[],"categories_segments":[],"categories_sizes":[],"default_left":[0,0,0,0,0,0,0,0,0,0,0,0,0,0,0,0,0,0,0,0,0,0,0,0,0,0,0,0,0,0,0,0,0,0,0,0,0,0,0,0,0,0,0,0,0,0,0,0,0,0,0,0,0,0,0,0,0,0,0,0,0,0,0],"id":5,"left_children":[1,3,5,7,9,11,13,15,17,19,21,23,25,27,29,31,33,35,37,39,41,43,45,47,49,51,53,55,57,59,61,-1,-1,-1,-1,-1,-1,-1,-1,-1,-1,-1,-1,-1,-1,-1,-1,-1,-1,-1,-1,-1,-1,-1,-1,-1,-1,-1,-1,-1,-1,-1,-1],"loss_changes":[3.5057422E2,1.6963916E2,5.6631012E1,3.4593018E1,8.50708E1,5.3753784E1,2.5237732E1,1.7984863E1,1.7255945E2,1.4155798E2,2.1397766E1,2.1585266E1,4.9355846E1,1.2355484E1,1.3998184E1,8.929192E0,1.4611816E1,2.4858719E1,1.1596069E1,1.6959839E1,4.5730316E1,1.828424E1,7.173744E0,1.8354218E1,1.6176643E1,2.49685E1,1.8946262E1,1.3865633E1,1.1289154E1,2.9904062E1,1.2670269E1,0E0,0E0,0E0,0E0,0E0,0E0,0E0,0E0,0E0,0E0,0E0,0E0,0E0,0E0,0E0,0E0,0E0,0E0,0E0,0E0,0E0,0E0,0E0,0E0,0E0,0E0,0E0,0E0,0E0,0E0,0E0,0E0],"parents":[2147483647,0,0,1,1,2,2,3,3,4,4,5,5,6,6,7,7,8,8,9,9,10,10,11,11,12,12,13,13,14,14,15,15,16,16,17,17,18,18,19,19,20,20,21,21,22,22,23,23,24,24,25,25,26,26,27,27,28,28,29,29,30,30],"right_children":[2,4,6,8,10,12,14,16,18,20,22,24,26,28,30,32,34,36,38,40,42,44,46,48,50,52,54,56,58,60,62,-1,-1,-1,-1,-1,-1,-1,-1,-1,-1,-1,-1,-1,-1,-1,-1,-1,-1,-1,-1,-1,-1,-1,-1,-1,-1,-1,-1,-1,-1,-1,-1],"split_conditions":[2.0703E3,1.64E0,1.8E1,1E1,1.8E1,1E1,6.635E1,1.73024E3,1.6E1,1.1E1,5.59E0,6.783E1,2.263E1,-9.501E1,2.35037E3,1.929E1,1.093E2,1E0,-8.261E1,-3.6525166E1,1.7E1,1.6722372E1,2.06681E3,1.83E0,1.97984E3,-3.7406442E0,-8.08E0,1E0,2.220727E1,2.1745205E3,1.2136736E1,-2.8326293E-2,-5.8632303E-2,-6.410474E-2,-1.6982486E-2,-4.969317E-2,-2.3161381E-2,6.536677E-2,-6.5490335E-2,4.920856E-2,-4.9739685E-2,-2.1706961E-2,-4.4624142E-2,-5.8868565E-2,-2.508208E-2,-2.1909323E-2,7.164362E-2,-4.6781912E-2,-2.5875488E-2,1.2692891E-1,-1.8047597E-2,-7.0011863E-3,4.527234E-2,-1.0045826E-2,-3.7849523E-2,8.958651E-2,-4.5335073E-2,-5.1049E-2,6.6825524E-2,-3.420326E-2,4.273204E-2,-3.8257606E-2,6.2225875E-3],"split_indices":[80,89,90,90,90,90,96,78,90,90,89,96,96,95,3,94,96,91,93,85,90,84,82,89,0,83,97,91,84,13,83,0,0,0,0,0,0,0,0,0,0,0,0,0,0,0,0,0,0,0,0,0,0,0,0,0,0,0,0,0,0,0,0],"split_type":[0,0,0,0,0,0,0,0,0,0,0,0,0,0,0,0,0,0,0,0,0,0,0,0,0,0,0,0,0,0,0,0,0,0,0,0,0,0,0,0,0,0,0,0,0,0,0,0,0,0,0,0,0,0,0,0,0,0,0,0,0,0,0],"sum_hessian":[3.2571625E4,2.5198291E4,7.373335E3,1.1683304E4,1.3514986E4,5.506886E3,1.8664487E3,6.1933325E3,5.4899707E3,1.04306045E4,3.0843826E3,2.8995083E3,2.607378E3,1.0769911E3,7.8945764E2,4.0212054E2,5.791212E3,2.119093E3,3.3708777E3,4.5812485E3,5.8493555E3,2.9496396E3,1.3474297E2,1.7310286E3,1.1684797E3,3.8473862E2,2.2226392E3,2.884517E1,1.0481459E3,2.0628534E2,5.831723E2,2.2907162E2,1.7304892E2,5.72378E3,6.743255E1,4.4862924E2,1.6704639E3,6.0351973E0,3.3648425E3,1.6639086E1,4.5646094E3,4.784031E3,1.0653246E3,2.7774692E3,1.7217052E2,1.269522E2,7.790758E0,7.301551E2,1.0008734E3,6.761868E0,1.1617178E3,1.4805505E2,2.3668356E2,1.9428832E3,2.7975607E2,1.2838989E1,1.600618E1,1.0407733E3,7.3726096E0,1.2110221E2,8.518312E1,5.1025604E2,7.291627E1],"tree_param":{"num_deleted":"0","num_feature":"98","num_nodes":"63","size_leaf_vector":"1"}},{"base_weights":[1.088739E-1,-4.742304E-2,2.5528774E-1,-1.6828053E-1,3.248512E-2,1.8014237E-1,3.503358E-1,-2.758905E-1,-1.2095367E-1,-3.4543123E-2,8.480037E-2,1.37708E-1,2.8631535E-1,5.0698954E-1,3.0971768E-1,-2.861207E-1,6.3906777E-1,-1.3035041E-1,2.340595E-1,9.359432E-2,-8.178357E-2,2.792399E-1,4.6834603E-2,1.5297514E-1,-1.2798032E-1,2.5075164E-1,4.903441E-1,2.8549343E-1,5.6754345E-1,2.95351E-1,6.606339E-1,-3.0257214E-2,2.5503887E-2,1.1034483E-1,-3.890429E-2,-4.708666E-3,-1.7225323E-2,3.519405E-2,-3.018789E-2,-3.886206E-2,1.1151134E-2,-8.539269E-3,1.1528998E-1,2.3289211E-2,6.5323345E-2,2.40611E-3,2.520887E-2,2.4558354E-2,1.1444083E-2,-2.4929387E-2,1.5095008E-2,9.989925E-2,2.3957942E-2,3.0328294E-2,6.48813E-2,-9.051525E-4,3.867806E-2,1.2895767E-1,5.0950367E-2,2.0023365E-2,3.454682E-2,5.3283375E-2,9.623209E-2],"categories":[],"categories_nodes":[],"categories_segments":[],"categories_sizes":[],"default_left":[0,0,0,0,0,0,0,0,0,0,0,0,0,0,0,0,0,0,0,0,0,0,0,0,0,0,0,0,0,0,0,0,0,0,0,0,0,0,0,0,0,0,0,0,0,0,0,0,0,0,0,0,0,0,0,0,0,0,0,0,0,0,0],"id":6,"left_children":[1,3,5,7,9,11,13,15,17,19,21,23,25,27,29,31,33,35,37,39,41,43,45,47,49,51,53,55,57,59,61,-1,-1,-1,-1,-1,-1,-1,-1,-1,-1,-1,-1,-1,-1,-1,-1,-1,-1,-1,-1,-1,-1,-1,-1,-1,-1,-1,-1,-1,-1,-1,-1],"loss_changes":[7.703537E2,1.5725601E2,1.2408008E2,3.297319E1,3.437731E1,4.370288E1,4.866742E1,1.8705643E1,1.505265E1,2.6023632E1,4.0631954E1,2.8164124E1,1.9986526E1,2.1007324E1,3.053717E1,1.7506287E1,1.1023874E1,1.5300186E1,7.464779E0,1.0049563E1,1.4093723E1,1.5435226E1,2.153188E1,2.3388687E1,1.2814262E1,1.9506622E1,1.1966698E1,1.0172844E1,5.124301E1,2.7855652E1,8.699875E0,0E0,0E0,0E0,0E0,0E0,0E0,0E0,0E0,0E0,0E0,0E0,0E0,0E0,0E0,0E0,0E0,0E0,0E0,0E0,0E0,0E0,0E0,0E0,0E0,0E0,0E0,0E0,0E0,0E0,0E0,0E0,0E0],"parents":[2147483647,0,0,1,1,2,2,3,3,4,4,5,5,6,6,7,7,8,8,9,9,10,10,11,11,12,12,13,13,14,14,15,15,16,16,17,17,18,18,19,19,20,20,21,21,22,22,23,23,24,24,25,25,26,26,27,27,28,28,29,29,30,30],"right_children":[2,4,6,8,10,12,14,16,18,20,22,24,26,28,30,32,34,36,38,40,42,44,46,48,50,52,54,56,58,60,62,-1,-1,-1,-1,-1,-1,-1,-1,-1,-1,-1,-1,-1,-1,-1,-1,-1,-1,-1,-1,-1,-1,-1,-1,-1,-1,-1,-1,-1,-1,-1,-1],"split_conditions":[1.86E0,1.13E0,3.05E0,7.4E-1,1.85877E3,2.03233E3,-3.731E1,5.128E1,4.852E1,1.74584E3,-6.019E1,2.01469E3,2.60486E3,4.38E0,-3.37E0,2.38769E3,1.92939E3,-3.712E1,6.721E1,-1.2740632E1,1.83788E3,2.916E1,-5.14E0,-4.753E1,2.02835E3,1.98686E3,2E0,1.79236E3,4.31E0,1.8105E3,5.821E1,-3.0257214E-2,2.5503887E-2,1.1034483E-1,-3.890429E-2,-4.708666E-3,-1.7225323E-2,3.519405E-2,-3.018789E-2,-3.886206E-2,1.1151134E-2,-8.539269E-3,1.1528998E-1,2.3289211E-2,6.5323345E-2,2.40611E-3,2.520887E-2,2.4558354E-2,1.1444083E-2,-2.4929387E-2,1.5095008E-2,9.989925E-2,2.3957942E-2,3.0328294E-2,6.48813E-2,-9.051525E-4,3.867806E-2,1.2895767E-1,5.0950367E-2,2.0023365E-2,3.454682E-2,5.3283375E-2,9.623209E-2],"split_indices":[89,89,89,89,80,2,93,92,94,2,97,1,81,94,97,78,0,97,92,84,77,92,97,97,3,77,91,77,92,81,94,0,0,0,0,0,0,0,0,0,0,0,0,0,0,0,0,0,0,0,0,0,0,0,0,0,0,0,0,0,0,0,0],"split_type":[0,0,0,0,0,0,0,0,0,0,0,0,0,0,0,0,0,0,0,0,0,0,0,0,0,0,0,0,0,0,0,0,0,0,0,0,0,0,0,0,0,0,0,0,0,0,0,0,0,0,0,0,0,0,0,0,0,0,0,0,0,0,0],"sum_hessian":[3.366184E4,1.628174E4,1.7380102E4,6.479971E3,9.80177E3,9.707897E3,7.6722036E3,1.97789E3,4.502081E3,4.296839E3,5.5049307E3,6.937478E3,2.7704194E3,1.5773368E3,6.094867E3,1.9566995E3,2.1190655E1,4.386606E3,1.15474976E2,1.1571483E3,3.1396907E3,8.9824805E2,4.6066826E3,6.560896E3,3.7658194E2,2.3610928E3,4.0932672E2,3.398685E2,1.2374683E3,5.8569233E3,2.3794368E2,1.899398E3,5.7301487E1,1.454682E1,6.643835E0,1.4692433E3,2.9173628E3,9.493672E1,2.0538256E1,4.071313E1,1.1164352E3,3.1314678E3,8.222784E0,8.006489E2,9.759911E1,4.147611E3,4.5907156E2,1.926242E3,4.6346543E3,2.6251437E2,1.1406758E2,3.343482E1,2.3276577E3,1.8906404E2,2.202627E2,8.72E1,2.5266852E2,9.0492584E1,1.1469757E3,2.022818E3,3.8341055E3,1.690831E2,6.886058E1],"tree_param":{"num_deleted":"0","num_feature":"98","num_nodes":"63","size_leaf_vector":"1"}},{"base_weights":[2.680919E-1,5.166848E-1,5.4174636E-2,4.0187085E-1,7.943482E-1,-9.0588756E-2,3.6162874E-1,5.578927E-1,-1.6926973E-1,8.27646E-1,3.2937625E-1,1.395916E-1,-3.3717313E-1,5.072539E-1,4.9241524E-2,6.098464E-1,1.14834234E-1,-8.286892E-2,-3.4079728E-1,8.5855687E-1,5.454195E-1,-3.3326083E-1,3.974346E-1,2.8843287E-1,-1.3084655E-1,-2.601111E-1,-5.195835E-1,5.872128E-1,2.860861E-1,1.5342501E-1,-2.1667741E-1,7.1434155E-2,4.8546314E-2,2.4004659E-2,-7.6227845E-3,-3.0600158E-2,-2.679066E-3,-3.5922613E-2,6.4431205E-2,6.699261E-2,8.906E-2,7.46522E-2,3.4546327E-2,-4.4538613E-2,8.522691E-2,6.2122624E-2,1.9945404E-2,4.5880627E-2,1.5480228E-2,-5.758784E-2,-1.0031878E-2,-3.287814E-2,-3.7266437E-3,-3.617935E-2,-5.4916937E-2,9.499834E-2,5.6301396E-2,-3.7768777E-2,3.1370543E-2,4.135554E-2,6.499886E-3,-1.4042414E-2,-5.4786902E-2],"categories":[],"categories_nodes":[],"categories_segments":[],"categories_sizes":[],"default_left":[0,0,0,0,0,0,0,0,0,0,0,0,0,0,0,0,0,0,0,0,0,0,0,0,0,0,0,0,0,0,0,0,0,0,0,0,0,0,0,0,0,0,0,0,0,0,0,0,0,0,0,0,0,0,0,0,0,0,0,0,0,0,0],"id":7,"left_children":[1,3,5,7,9,11,13,15,17,19,21,23,25,27,29,31,33,35,37,39,41,43,45,47,49,51,53,55,57,59,61,-1,-1,-1,-1,-1,-1,-1,-1,-1,-1,-1,-1,-1,-1,-1,-1,-1,-1,-1,-1,-1,-1,-1,-1,-1,-1,-1,-1,-1,-1,-1,-1],"loss_changes":[1.8188782E3,5.0400586E2,8.183253E2,9.975831E2,7.136182E1,7.0956616E2,2.677224E2,2.0231616E2,3.5577835E1,3.7192627E1,1.4151428E1,2.6031158E2,8.470581E1,7.082068E1,5.1908463E1,1.0193384E2,2.2124002E1,2.0000732E1,1.4836388E1,2.2909912E1,1.6988167E1,4.3006477E0,1.2386375E1,9.488965E1,3.1136536E1,6.4948395E1,8.164734E0,2.5338867E1,1.969542E1,3.0933048E1,1.3245024E1,0E0,0E0,0E0,0E0,0E0,0E0,0E0,0E0,0E0,0E0,0E0,0E0,0E0,0E0,0E0,0E0,0E0,0E0,0E0,0E0,0E0,0E0,0E0,0E0,0E0,0E0,0E0,0E0,0E0,0E0,0E0,0E0],"parents":[2147483647,0,0,1,1,2,2,3,3,4,4,5,5,6,6,7,7,8,8,9,9,10,10,11,11,12,12,13,13,14,14,15,15,16,16,17,17,18,18,19,19,20,20,21,21,22,22,23,23,24,24,25,25,26,26,27,27,28,28,29,29,30,30],"right_children":[2,4,6,8,10,12,14,16,18,20,22,24,26,28,30,32,34,36,38,40,42,44,46,48,50,52,54,56,58,60,62,-1,-1,-1,-1,-1,-1,-1,-1,-1,-1,-1,-1,-1,-1,-1,-1,-1,-1,-1,-1,-1,-1,-1,-1,-1,-1,-1,-1,-1,-1,-1,-1],"split_conditions":[1.76E0,1.7E1,1.7E1,1.1E1,2.40196E3,1.1E1,3.57E0,2.168163E3,1.95563E3,7.103E1,2.44567E3,2.04867E3,2.06681E3,2.0703E3,5.94E0,6E0,6E0,1.74779E3,1.6E1,-5.945E1,2.2E1,2.4062212E3,2.65506E3,6E0,-1.618559E1,1.6E1,1.2E1,4.45E0,1.97498E3,1.8263096E3,1.029E1,7.1434155E-2,4.8546314E-2,2.4004659E-2,-7.6227845E-3,-3.0600158E-2,-2.679066E-3,-3.5922613E-2,6.4431205E-2,6.699261E-2,8.906E-2,7.46522E-2,3.4546327E-2,-4.4538613E-2,8.522691E-2,6.2122624E-2,1.9945404E-2,4.5880627E-2,1.5480228E-2,-5.758784E-2,-1.0031878E-2,-3.287814E-2,-3.7266437E-3,-3.617935E-2,-5.4916937E-2,9.499834E-2,5.6301396E-2,-3.7768777E-2,3.1370543E-2,4.135554E-2,6.499886E-3,-1.4042414E-2,-5.4786902E-2],"split_indices":[89,90,90,90,82,90,89,13,82,96,82,78,82,82,89,90,90,77,90,97,90,13,82,90,84,90,90,96,77,11,89,0,0,0,0,0,0,0,0,0,0,0,0,0,0,0,0,0,0,0,0,0,0,0,0,0,0,0,0,0,0,0,0],"split_type":[0,0,0,0,0,0,0,0,0,0,0,0,0,0,0,0,0,0,0,0,0,0,0,0,0,0,0,0,0,0,0,0,0,0,0,0,0,0,0,0,0,0,0,0,0,0,0,0,0,0,0,0,0,0,0,0,0,0,0,0,0,0,0],"sum_hessian":[3.420291E4,1.5818658E4,1.838425E4,1.1192855E4,4.6258027E3,1.2499583E4,5.8846675E3,8.791306E3,2.4015498E3,4.315947E3,3.09856E2,6.4650522E3,6.034531E3,4.0132104E3,1.8714569E3,7.8682827E3,9.2302295E2,1.5980654E3,8.0348444E2,3.8880647E3,4.27882E2,2.8497625E1,2.8135837E2,4.169961E3,2.2950913E3,4.2440107E3,1.7905203E3,2.946357E3,1.0668535E3,1.3449475E3,5.265094E2,4.2734165E3,3.594866E3,5.574453E2,3.6557764E2,3.2006915E2,1.2779962E3,7.89353E2,1.4131384E1,5.6775E2,3.3203147E3,2.1196675E2,2.1591524E2,2.6605625E1,1.8919986E0,1.3106657E2,1.502918E2,1.8319141E3,2.3380469E3,1.4618288E2,2.1489084E3,3.2439126E3,1.0000979E3,2.8480377E2,1.5057164E3,1.8185602E2,2.764501E3,4.211162E1,1.0247418E3,3.4027017E2,1.00467737E3,4.291307E2,9.737871E1],"tree_param":{"num_deleted":"0","num_feature":"98","num_nodes":"63","size_leaf_vector":"1"}},{"base_weights":[-4.0559977E-1,-4.5871988E-1,-2.1231845E-1,-4.9865034E-1,-3.7142342E-1,-2.7513254E-1,-1.244022E-1,-5.3845173E-1,-4.1826895E-1,-4.0286472E-1,-2.5069812E-1,-1.1842434E-1,-3.475961E-1,-5.401221E-2,-3.199487E-1,-5.600824E-1,-4.5740384E-1,-4.491684E-1,-3.2762867E-1,-4.5095682E-1,-3.2863015E-1,-2.7393112E-1,1.1501442E-1,4.8308828E-1,-1.408903E-1,-2.2386926E-1,-3.7788707E-1,-1.484187E-1,4.389171E-1,-3.8354138E-1,-1.3612762E-1,2.171558E-2,-5.6171786E-2,-2.0406872E-2,-4.668912E-2,6.1835166E-2,-4.512673E-2,-3.554016E-2,-1.9943722E-2,8.523946E-3,-4.5572948E-2,-3.4488E-2,-1.0377919E-2,8.019891E-2,-2.805843E-2,3.8354583E-2,-4.035345E-2,-6.070829E-3,7.5187206E-2,-3.6585566E-2,-6.6670077E-3,-2.9150436E-2,1.7383993E-2,-4.2901423E-2,-2.2871492E-2,-1.863029E-2,5.6532356E-3,9.691491E-2,2.5536705E-2,-2.3873745E-2,-4.7294628E-2,1.38678355E-2,-3.474017E-2],"categories":[],"categories_nodes":[],"categories_segments":[],"categories_sizes":[],"default_left":[0,0,0,0,0,0,0,0,0,0,0,0,0,0,0,0,0,0,0,0,0,0,0,0,0,0,0,0,0,0,0,0,0,0,0,0,0,0,0,0,0,0,0,0,0,0,0,0,0,0,0,0,0,0,0,0,0,0,0,0,0,0,0],"id":8,"left_children":[1,3,5,7,9,11,13,15,17,19,21,23,25,27,29,31,33,35,37,39,41,43,45,47,49,51,53,55,57,59,61,-1,-1,-1,-1,-1,-1,-1,-1,-1,-1,-1,-1,-1,-1,-1,-1,-1,-1,-1,-1,-1,-1,-1,-1,-1,-1,-1,-1,-1,-1,-1,-1],"loss_changes":[3.260464E2,8.666943E1,3.7794373E1,5.4461914E1,2.959729E1,4.5320007E1,3.930049E1,1.9780762E1,1.5720276E1,2.2007141E1,1.3790031E1,1.7157274E1,1.0150604E1,9.78643E1,8.7836E0,1.1583984E1,5.704712E0,9.739685E0,5.0702667E0,9.669617E0,8.89209E0,1.1126144E1,1.3721605E1,6.733633E0,2.034326E1,1.45644455E1,1.6623016E1,1.3711117E1,3.2653526E1,7.150345E0,1.1417937E1,0E0,0E0,0E0,0E0,0E0,0E0,0E0,0E0,0E0,0E0,0E0,0E0,0E0,0E0,0E0,0E0,0E0,0E0,0E0,0E0,0E0,0E0,0E0,0E0,0E0,0E0,0E0,0E0,0E0,0E0,0E0,0E0],"parents":[2147483647,0,0,1,1,2,2,3,3,4,4,5,5,6,6,7,7,8,8,9,9,10,10,11,11,12,12,13,13,14,14,15,15,16,16,17,17,18,18,19,19,20,20,21,21,22,22,23,23,24,24,25,25,26,26,27,27,28,28,29,29,30,30],"right_children":[2,4,6,8,10,12,14,16,18,20,22,24,26,28,30,32,34,36,38,40,42,44,46,48,50,52,54,56,58,60,62,-1,-1,-1,-1,-1,-1,-1,-1,-1,-1,-1,-1,-1,-1,-1,-1,-1,-1,-1,-1,-1,-1,-1,-1,-1,-1,-1,-1,-1,-1,-1,-1],"split_conditions":[2.077715E3,1.18E0,6.635E1,5.8E-1,8.7E-1,2.627E1,-8.08E0,7.6E-1,1.25E0,4.8E-1,1.7453276E1,-9.501E1,-8.142E1,-8.17E0,4E0,-8.261E1,1.62243E3,-2.5716696E1,1.0916108E1,-7.634E1,4.78E0,1.6339182E3,-7.05E0,-7.3749834E-1,-2.4090078E0,4.485E1,-7.12E0,4E0,2.43144E3,2.47761E3,-3.76E0,2.171558E-2,-5.6171786E-2,-2.0406872E-2,-4.668912E-2,6.1835166E-2,-4.512673E-2,-3.554016E-2,-1.9943722E-2,8.523946E-3,-4.5572948E-2,-3.4488E-2,-1.0377919E-2,8.019891E-2,-2.805843E-2,3.8354583E-2,-4.035345E-2,-6.070829E-3,7.5187206E-2,-3.6585566E-2,-6.6670077E-3,-2.9150436E-2,1.7383993E-2,-4.2901423E-2,-2.2871492E-2,-1.863029E-2,5.6532356E-3,9.691491E-2,2.5536705E-2,-2.3873745E-2,-4.7294628E-2,1.38678355E-2,-3.474017E-2],"split_indices":[11,86,96,87,87,96,97,88,87,88,84,95,97,93,91,93,81,84,85,95,86,11,97,9,8,96,93,91,82,82,95,0,0,0,0,0,0,0,0,0,0,0,0,0,0,0,0,0,0,0,0,0,0,0,0,0,0,0,0,0,0,0,0],"split_type":[0,0,0,0,0,0,0,0,0,0,0,0,0,0,0,0,0,0,0,0,0,0,0,0,0,0,0,0,0,0,0,0,0,0,0,0,0,0,0,0,0,0,0,0,0,0,0,0,0,0,0,0,0,0,0,0,0,0,0,0,0,0,0],"sum_hessian":[3.176481E4,2.4915758E4,6.849052E3,1.7092656E4,7.823101E3,3.9935933E3,2.8554583E3,1.1428208E4,5.664448E3,6.2048057E3,1.6182955E3,1.2635977E3,2.7299956E3,2.1005933E3,7.5486487E2,9.01603E3,2.4121777E3,4.2214067E3,1.4430419E3,3.7623389E3,2.4424668E3,1.5218654E3,9.643021E1,4.4756844E1,1.2188408E3,5.385636E2,2.1914321E3,1.7635372E3,3.370561E2,5.60035E2,1.9482988E2,1.8655186E1,8.997375E3,8.78871E1,2.3242908E3,7.7073383E0,4.213699E3,1.1846193E3,2.5842267E2,3.3044342E1,3.7292947E3,2.2773503E3,1.6511641E2,8.618277E0,1.5132471E3,6.3702248E1,3.2727962E1,1.5060649E1,2.9696194E1,3.0138824E2,9.174526E2,4.605147E2,7.804885E1,1.6306641E3,5.60768E2,1.4884884E3,2.750489E2,8.557384E1,2.5148225E2,2.1518411E2,3.448509E2,8.48319E1,1.09997986E2],"tree_param":{"num_deleted":"0","num_feature":"98","num_nodes":"63","size_leaf_vector":"1"}},{"base_weights":[1.003407E-1,-9.1683015E-2,2.0573284E-1,-2.466489E-1,-5.039287E-2,1.2779807E-1,3.038165E-1,-2.7674907E-1,1.09719396E-1,-6.90393E-2,1.20417625E-1,-1.7266904E-1,1.393626E-1,-1.3647297E-1,3.2298118E-1,-3.7859142E-1,-2.1109098E-1,3.9316546E-2,6.526405E-1,-7.62999E-2,2.0361266E-1,6.4458E-2,3.38138E-1,-4.6156496E-1,-1.0557773E-1,3.168744E-1,1.1787688E-1,-6.8266934E-1,-1.1127104E-1,5.088549E-1,2.8225896E-1,1.2779399E-2,-3.935661E-2,-1.6373683E-2,-3.3444345E-2,-3.672437E-2,1.620274E-2,1.0975498E-1,-2.8159155E-2,-4.152572E-3,-1.3106264E-2,3.7276845E-2,-2.9856712E-2,1.6200595E-2,-1.1708833E-2,5.5105545E-2,3.5298292E-3,-5.3267747E-2,-9.762823E-3,3.689849E-3,-2.9019756E-2,2.2313492E-2,5.422008E-2,5.1273745E-3,1.712972E-2,-3.0299185E-2,-7.325129E-2,-1.31362155E-2,9.687002E-2,7.585847E-2,4.4027384E-2,2.0139156E-2,3.2725494E-2],"categories":[],"categories_nodes":[],"categories_segments":[],"categories_sizes":[],"default_left":[0,0,0,0,0,0,0,0,0,0,0,0,0,0,0,0,0,0,0,0,0,0,0,0,0,0,0,0,0,0,0,0,0,0,0,0,0,0,0,0,0,0,0,0,0,0,0,0,0,0,0,0,0,0,0,0,0,0,0,0,0,0,0],"id":9,"left_children":[1,3,5,7,9,11,13,15,17,19,21,23,25,27,29,31,33,35,37,39,41,43,45,47,49,51,53,55,57,59,61,-1,-1,-1,-1,-1,-1,-1,-1,-1,-1,-1,-1,-1,-1,-1,-1,-1,-1,-1,-1,-1,-1,-1,-1,-1,-1,-1,-1,-1,-1,-1,-1],"loss_changes":[6.825218E2,7.645793E1,1.6640448E2,2.6998932E1,3.006851E1,4.2190216E1,8.138678E1,1.5424118E1,7.486367E0,1.6861626E1,1.1299889E1,8.677109E0,4.4531845E1,5.468751E0,6.978229E1,6.9326477E0,8.193115E0,8.791893E0,9.659261E0,1.57810135E1,1.8885014E1,1.3132634E1,1.2216965E1,2.1361713E0,9.654899E0,2.6516342E1,3.708528E1,1.10583305E-1,8.507715E0,2.807898E1,2.7516357E1,0E0,0E0,0E0,0E0,0E0,0E0,0E0,0E0,0E0,0E0,0E0,0E0,0E0,0E0,0E0,0E0,0E0,0E0,0E0,0E0,0E0,0E0,0E0,0E0,0E0,0E0,0E0,0E0,0E0,0E0,0E0,0E0],"parents":[2147483647,0,0,1,1,2,2,3,3,4,4,5,5,6,6,7,7,8,8,9,9,10,10,11,11,12,12,13,13,14,14,15,15,16,16,17,17,18,18,19,19,20,20,21,21,22,22,23,23,24,24,25,25,26,26,27,27,28,28,29,29,30,30],"right_children":[2,4,6,8,10,12,14,16,18,20,22,24,26,28,30,32,34,36,38,40,42,44,46,48,50,52,54,56,58,60,62,-1,-1,-1,-1,-1,-1,-1,-1,-1,-1,-1,-1,-1,-1,-1,-1,-1,-1,-1,-1,-1,-1,-1,-1,-1,-1,-1,-1,-1,-1,-1,-1],"split_conditions":[1.53E0,8E-1,2.73E0,7.199E1,2.178365E3,4.45E0,5.31E0,6E-1,5.022E1,4.852E1,8.891E1,-3.1027813E0,-3.714E1,-9.501E1,-3.731E1,1.70456E3,-6.53E0,1.7835725E3,1.92939E3,-9.7E0,1.89086E3,-1.071E1,2.57887E3,1E2,-2.751E1,3.237E1,1.8105E3,1.85E0,2.73933E3,5.01E0,1.8105E3,1.2779399E-2,-3.935661E-2,-1.6373683E-2,-3.3444345E-2,-3.672437E-2,1.620274E-2,1.0975498E-1,-2.8159155E-2,-4.152572E-3,-1.3106264E-2,3.7276845E-2,-2.9856712E-2,1.6200595E-2,-1.1708833E-2,5.5105545E-2,3.5298292E-3,-5.3267747E-2,-9.762823E-3,3.689849E-3,-2.9019756E-2,2.2313492E-2,5.422008E-2,5.1273745E-3,1.712972E-2,-3.0299185E-2,-7.325129E-2,-1.31362155E-2,9.687002E-2,7.585847E-2,4.4027384E-2,2.0139156E-2,3.2725494E-2],"split_indices":[89,89,89,96,12,96,96,89,94,94,96,10,95,95,93,0,93,13,0,95,81,95,0,47,95,96,81,96,82,92,81,0,0,0,0,0,0,0,0,0,0,0,0,0,0,0,0,0,0,0,0,0,0,0,0,0,0,0,0,0,0,0,0],"split_type":[0,0,0,0,0,0,0,0,0,0,0,0,0,0,0,0,0,0,0,0,0,0,0,0,0,0,0,0,0,0,0,0,0,0,0,0,0,0,0,0,0,0,0,0,0,0,0,0,0,0,0,0,0,0,0,0,0,0,0,0,0,0,0],"sum_hessian":[3.3723184E4,1.1950178E4,2.1773008E4,2.5131416E3,9.437036E3,1.2133969E4,9.639039E3,2.317611E3,1.955306E2,8.508776E3,9.282599E2,4.4919376E2,1.1684775E4,4.0180655E2,9.237232E3,9.066066E2,1.4110044E3,1.7403514E2,2.149545E1,8.2887705E3,2.2000601E2,7.394888E2,1.8877116E2,8.354941E1,3.6564435E2,1.2601182E3,1.0424657E4,1.6571331E1,3.8523523E2,1.6579835E3,7.5792485E3,2.5823515E1,8.807831E2,1.02127234E3,3.897321E2,3.9887817E1,1.3414732E2,1.4442623E1,7.0528255E0,5.070669E3,3.218101E3,1.6476407E2,5.5241943E1,4.8109552E2,2.5839322E2,1.1036046E2,7.8410706E1,6.950468E1,1.4044731E1,2.068289E2,1.5881543E2,8.9130914E2,3.6880902E2,4.6407026E3,5.7839546E3,2.7444735E0,1.3826857E1,3.7906177E2,6.1734643E0,3.550501E2,1.3029333E3,2.7115266E3,4.867722E3],"tree_param":{"num_deleted":"0","num_feature":"98","num_nodes":"63","size_leaf_vector":"1"}},{"base_weights":[2.4522452E-1,4.2089298E-1,-1.0029251E-2,3.0344528E-1,7.008916E-1,-1.4677219E-1,2.6877087E-1,4.6827227E-1,-2.1205126E-1,7.5966704E-1,4.4342119E-1,5.6665808E-2,-3.36413E-1,3.5733405E-1,-7.986204E-2,5.2475375E-1,5.9910446E-2,1.4063956E-1,-3.0554816E-1,7.776146E-1,2.5892046E-1,5.847788E-1,1.7052336E-2,2.0250139E-1,-1.7212915E-1,-2.6670966E-1,-5.401215E-1,5.466914E-1,2.7952877E-1,2.5167516E-2,-3.327912E-1,6.339223E-2,3.9874062E-2,1.816507E-2,-1.3186972E-2,3.1724926E-2,-1.1413453E-2,-6.958691E-3,-3.7094682E-2,8.075573E-2,5.48477E-2,4.4743855E-2,-1.6228408E-2,-6.624268E-2,6.0944807E-2,4.8749454E-2,-2.208443E-2,3.6938556E-2,8.253063E-3,-6.0546882E-2,-1.3804465E-2,-3.32368E-2,-9.658827E-3,-3.922346E-2,-5.6729652E-2,3.371869E-2,6.401833E-2,4.102124E-2,1.8017143E-2,1.5298286E-2,-1.8511798E-2,-2.2608623E-2,-5.2724022E-2],"categories":[],"categories_nodes":[],"categories_segments":[],"categories_sizes":[],"default_left":[0,0,0,0,0,0,0,0,0,0,0,0,0,0,0,0,0,0,0,0,0,0,0,0,0,0,0,0,0,0,0,0,0,0,0,0,0,0,0,0,0,0,0,0,0,0,0,0,0,0,0,0,0,0,0,0,0,0,0,0,0,0,0],"id":10,"left_children":[1,3,5,7,9,11,13,15,17,19,21,23,25,27,29,31,33,35,37,39,41,43,45,47,49,51,53,55,57,59,61,-1,-1,-1,-1,-1,-1,-1,-1,-1,-1,-1,-1,-1,-1,-1,-1,-1,-1,-1,-1,-1,-1,-1,-1,-1,-1,-1,-1,-1,-1,-1,-1],"loss_changes":[1.5398857E3,6.687405E2,5.337974E2,1.2179109E3,9.061865E1,3.624433E2,1.4229102E2,2.5046387E2,1.1457219E2,4.376367E1,6.746062E1,1.5128558E2,6.889288E1,5.3981598E1,2.4824629E1,1.309961E2,3.0859898E1,3.2814236E1,4.234442E1,3.195581E1,1.3632428E1,2.627005E1,3.1417898E1,5.540571E1,2.5987946E1,4.0453125E1,4.755005E0,2.0723267E1,3.37677E1,1.7794552E1,5.5694103E0,0E0,0E0,0E0,0E0,0E0,0E0,0E0,0E0,0E0,0E0,0E0,0E0,0E0,0E0,0E0,0E0,0E0,0E0,0E0,0E0,0E0,0E0,0E0,0E0,0E0,0E0,0E0,0E0,0E0,0E0,0E0,0E0],"parents":[2147483647,0,0,1,1,2,2,3,3,4,4,5,5,6,6,7,7,8,8,9,9,10,10,11,11,12,12,13,13,14,14,15,15,16,16,17,17,18,18,19,19,20,20,21,21,22,22,23,23,24,24,25,25,26,26,27,27,28,28,29,29,30,30],"right_children":[2,4,6,8,10,12,14,16,18,20,22,24,26,28,30,32,34,36,38,40,42,44,46,48,50,52,54,56,58,60,62,-1,-1,-1,-1,-1,-1,-1,-1,-1,-1,-1,-1,-1,-1,-1,-1,-1,-1,-1,-1,-1,-1,-1,-1,-1,-1,-1,-1,-1,-1,-1,-1],"split_conditions":[2.14E0,1.7E1,1.7E1,1.1E1,4E0,1.1E1,4.8E0,2.168163E3,1E0,2.58981E3,1.9708845E3,2.04867E3,2.22265E3,1.84549E3,7.27E0,6E0,2.866E1,6.9415426E-1,1.2E1,7.307E1,2.3E1,-1.1073E2,2.982E1,6E0,-1.618559E1,1.6E1,1.2E1,-4.753E1,3.448E1,2.159334E3,1.029E1,6.339223E-2,3.9874062E-2,1.816507E-2,-1.3186972E-2,3.1724926E-2,-1.1413453E-2,-6.958691E-3,-3.7094682E-2,8.075573E-2,5.48477E-2,4.4743855E-2,-1.6228408E-2,-6.624268E-2,6.0944807E-2,4.8749454E-2,-2.208443E-2,3.6938556E-2,8.253063E-3,-6.0546882E-2,-1.3804465E-2,-3.32368E-2,-9.658827E-3,-3.922346E-2,-5.6729652E-2,3.371869E-2,6.401833E-2,4.102124E-2,1.8017143E-2,1.5298286E-2,-1.8511798E-2,-2.2608623E-2,-5.2724022E-2],"split_indices":[89,90,90,90,91,90,89,13,91,79,12,78,78,80,89,90,92,83,90,96,90,97,96,90,84,90,90,97,96,11,89,0,0,0,0,0,0,0,0,0,0,0,0,0,0,0,0,0,0,0,0,0,0,0,0,0,0,0,0,0,0,0,0],"split_type":[0,0,0,0,0,0,0,0,0,0,0,0,0,0,0,0,0,0,0,0,0,0,0,0,0,0,0,0,0,0,0,0,0,0,0,0,0,0,0,0,0,0,0,0,0,0,0,0,0,0,0,0,0,0,0,0,0,0,0,0,0,0,0],"sum_hessian":[3.4340664E4,2.0341068E4,1.3999596E4,1.4331633E4,6.009436E3,9.393061E3,4.6065356E3,1.0859472E4,3.4721611E3,4.890973E3,1.1184631E3,4.5320186E3,4.8610415E3,3.6733657E3,9.3316974E2,9.539726E3,1.3197463E3,7.2747217E2,2.744689E3,4.7212046E3,1.6976846E2,8.3969916E2,2.7876398E2,2.7678718E3,1.7641469E3,3.6234927E3,1.2375488E3,1.0680327E3,2.6053333E3,6.600024E2,2.731674E2,5.1093384E3,4.430387E3,8.0732E2,5.1242633E2,4.294982E2,2.9797394E2,5.960779E2,2.148611E3,4.173327E3,5.478776E2,1.172353E2,5.253317E1,1.57853565E1,8.239138E2,9.327092E1,1.8549306E2,1.156732E3,1.6111398E3,1.27418976E2,1.6367279E3,2.6137583E3,1.0097342E3,1.9450154E2,1.0430472E3,3.3097134E2,7.370613E2,1.1239219E3,1.4814113E3,4.1066513E2,2.4933723E2,1.7777504E2,9.539234E1],"tree_param":{"num_deleted":"0","num_feature":"98","num_nodes":"63","size_leaf_vector":"1"}},{"base_weights":[-3.8265014E-1,-4.376067E-1,-1.9983087E-1,-5.024582E-1,-3.35862E-1,-2.5646502E-1,-1.2136314E-1,-5.631592E-1,-4.5647603E-1,-3.9165193E-1,-2.7307186E-1,-1.05411105E-1,-3.266803E-1,-5.3077348E-2,-2.9580382E-1,2.3886934E-1,-5.657747E-1,-4.619372E-1,7.160866E-3,1.503763E-1,-3.9582267E-1,5.429289E-1,-2.7934772E-1,4.8034748E-1,-1.2886213E-1,4.3214947E-1,-3.3204475E-1,-1.2582302E-1,3.8681272E-1,-3.6805594E-1,-1.0393404E-1,8.5104786E-2,-6.168301E-2,-5.8310848E-2,-4.8930127E-2,-2.7910823E-2,-4.6786457E-2,2.0199984E-2,-6.290174E-2,-4.190639E-2,5.700296E-2,1.6873876E-2,-3.994189E-2,8.583349E-2,-3.4039345E-2,-2.9618645E-2,-2.6223392E-3,1.2348516E-1,3.2326706E-2,-3.8657468E-2,-7.0312517E-3,1.3797341E-1,-3.3346064E-2,-4.452431E-2,-2.9292097E-2,-1.3995813E-2,4.4255298E-2,9.274612E-2,2.3525532E-2,-3.1245252E-2,-5.6853183E-2,-5.328571E-4,-6.460847E-2],"categories":[],"categories_nodes":[],"categories_segments":[],"categories_sizes":[],"default_left":[0,0,0,0,0,0,0,0,0,0,0,0,0,0,0,0,0,0,0,0,0,0,0,0,0,0,0,0,0,0,0,0,0,0,0,0,0,0,0,0,0,0,0,0,0,0,0,0,0,0,0,0,0,0,0,0,0,0,0,0,0,0,0],"id":11,"left_children":[1,3,5,7,9,11,13,15,17,19,21,23,25,27,29,31,33,35,37,39,41,43,45,47,49,51,53,55,57,59,61,-1,-1,-1,-1,-1,-1,-1,-1,-1,-1,-1,-1,-1,-1,-1,-1,-1,-1,-1,-1,-1,-1,-1,-1,-1,-1,-1,-1,-1,-1,-1,-1],"loss_changes":[3.119121E2,1.5736865E2,3.1872864E1,4.0436523E1,3.246118E1,4.4181213E1,3.5855396E1,1.3307495E1,2.102063E1,1.1183533E1,2.2568909E1,1.8254198E1,1.172641E1,6.934225E1,1.1703285E1,1.1585606E1,8.012207E0,8.760254E0,1.2227323E1,9.391029E0,9.981873E0,9.6949625E0,1.851056E1,5.6679554E0,1.9198755E1,1.5266226E1,1.2385376E1,1.4996349E1,2.4980549E1,6.6765366E0,1.2457161E1,0E0,0E0,0E0,0E0,0E0,0E0,0E0,0E0,0E0,0E0,0E0,0E0,0E0,0E0,0E0,0E0,0E0,0E0,0E0,0E0,0E0,0E0,0E0,0E0,0E0,0E0,0E0,0E0,0E0,0E0,0E0,0E0],"parents":[2147483647,0,0,1,1,2,2,3,3,4,4,5,5,6,6,7,7,8,8,9,9,10,10,11,11,12,12,13,13,14,14,15,15,16,16,17,17,18,18,19,19,20,20,21,21,22,22,23,23,24,24,25,25,26,26,27,27,28,28,29,29,30,30],"right_children":[2,4,6,8,10,12,14,16,18,20,22,24,26,28,30,32,34,36,38,40,42,44,46,48,50,52,54,56,58,60,62,-1,-1,-1,-1,-1,-1,-1,-1,-1,-1,-1,-1,-1,-1,-1,-1,-1,-1,-1,-1,-1,-1,-1,-1,-1,-1,-1,-1,-1,-1,-1,-1],"split_conditions":[2.0703E3,2.06E0,6.635E1,1.21E0,3.05E0,2.627E1,-8.6E0,1.61729E3,1.1481E2,-7.234E1,1.6396945E3,-9.501E1,2.0337092E3,-8.55E0,3.4678423E0,1.1934244E1,5.287E1,1.66512E3,1.9530477E3,3.1584711E1,1.6396945E3,5.033529E0,1.0037E2,-2.1292532E1,-3.1027813E0,2.0232E3,1.437E1,7.0160675E1,2.36873E3,-2.26E0,7.323E1,8.5104786E-2,-6.168301E-2,-5.8310848E-2,-4.8930127E-2,-2.7910823E-2,-4.6786457E-2,2.0199984E-2,-6.290174E-2,-4.190639E-2,5.700296E-2,1.6873876E-2,-3.994189E-2,8.583349E-2,-3.4039345E-2,-2.9618645E-2,-2.6223392E-3,1.2348516E-1,3.2326706E-2,-3.8657468E-2,-7.0312517E-3,1.3797341E-1,-3.3346064E-2,-4.452431E-2,-2.9292097E-2,-1.3995813E-2,4.4255298E-2,9.274612E-2,2.3525532E-2,-3.1245252E-2,-5.6853183E-2,-5.328571E-4,-6.460847E-2],"split_indices":[80,89,96,89,89,96,97,77,96,95,13,95,13,95,10,85,96,2,13,5,13,7,96,83,10,3,92,4,78,95,92,0,0,0,0,0,0,0,0,0,0,0,0,0,0,0,0,0,0,0,0,0,0,0,0,0,0,0,0,0,0,0,0],"split_type":[0,0,0,0,0,0,0,0,0,0,0,0,0,0,0,0,0,0,0,0,0,0,0,0,0,0,0,0,0,0,0,0,0,0,0,0,0,0,0,0,0,0,0,0,0,0,0,0,0,0,0,0,0,0,0,0,0,0,0,0,0,0,0],"sum_hessian":[3.1052654E4,2.3874459E4,7.1781953E3,1.4578351E4,9.296108E3,4.1678086E3,3.010387E3,6.2786597E3,8.29969E3,4.9196733E3,4.3764355E3,1.3233632E3,2.8444453E3,2.1644177E3,8.459693E2,2.0114532E1,6.258545E3,8.20307E3,9.662028E1,3.7298737E1,4.8823745E3,3.274952E1,4.343686E3,5.0191803E1,1.2731714E3,1.9408735E1,2.8250366E3,1.8578883E3,3.0652945E2,6.1388226E2,2.32087E2,1.1728936E1,8.385597E0,5.0966807E3,1.1618643E3,2.591054E2,7.943965E3,7.448931E1,2.213097E1,1.582573E1,2.1473005E1,3.0612516E1,4.851762E3,2.4153404E1,8.596116E0,4.0725923E3,2.710937E2,7.466536E0,4.2725266E1,2.3466502E2,1.0385063E3,8.315108E0,1.1093627E1,7.229416E2,2.102095E3,1.8135406E3,4.4347717E1,6.599323E1,2.4053621E2,4.8259085E2,1.3129144E2,1.9722574E2,3.4861263E1],"tree_param":{"num_deleted":"0","num_feature":"98","num_nodes":"63","size_leaf_vector":"1"}},{"base_weights":[9.702123E-2,1.6965939E-1,-1.9017273E-1,1.8851587E-3,2.7139652E-1,-2.506115E-1,5.2473407E-2,-5.799342E-2,2.271642E-1,3.1121588E-1,8.524284E-2,-3.0050915E-1,-3.692697E-2,-1.6873367E-1,1.9919625E-1,1.2570336E-1,-1.0293131E-1,3.3672494E-1,5.962224E-2,1.9824795E-1,3.9851907E-1,-8.191341E-2,1.6075681E-1,-3.4291306E-1,-1.316728E-1,3.9606795E-2,-4.007165E-1,-2.5820372E-1,2.0281394E-1,9.2803486E-2,4.0585217E-1,3.140645E-2,2.1510844E-3,-1.8963626E-2,1.1995275E-3,3.52275E-2,-7.7632144E-2,6.400891E-2,-2.4675522E-3,4.8810832E-2,1.6320962E-2,-7.0532933E-3,4.1393295E-2,-5.4505635E-2,-5.158871E-3,-4.388381E-2,1.8295227E-2,-4.065624E-2,-2.6047248E-2,-1.971542E-2,2.1411141E-2,-3.7456502E-3,5.1524956E-2,-4.9297895E-2,-8.712175E-4,1.1134263E-1,-2.7869532E-2,4.7437634E-2,-1.5400874E-2,4.374469E-2,-9.895246E-3,9.16479E-3,6.863462E-2],"categories":[],"categories_nodes":[],"categories_segments":[],"categories_sizes":[],"default_left":[0,0,0,0,0,0,0,0,0,0,0,0,0,0,0,0,0,0,0,0,0,0,0,0,0,0,0,0,0,0,0,0,0,0,0,0,0,0,0,0,0,0,0,0,0,0,0,0,0,0,0,0,0,0,0,0,0,0,0,0,0,0,0],"id":12,"left_children":[1,3,5,7,9,11,13,15,17,19,21,23,25,27,29,31,33,35,37,39,41,43,45,47,49,51,53,55,57,59,61,-1,-1,-1,-1,-1,-1,-1,-1,-1,-1,-1,-1,-1,-1,-1,-1,-1,-1,-1,-1,-1,-1,-1,-1,-1,-1,-1,-1,-1,-1,-1,-1],"loss_changes":[7.05634E2,4.6079492E2,1.00152176E2,1.3749362E2,1.2454443E2,5.827838E1,4.4254356E1,6.64854E1,3.926748E1,1.3645483E2,3.7410522E1,3.1683533E1,2.8861668E1,1.8131876E1,1.7982815E1,3.1063831E1,6.4476814E1,2.266745E1,4.148324E1,6.123181E1,5.647986E1,1.2929502E1,2.7244087E1,1.847763E1,2.0222374E1,3.1427841E1,6.5118885E0,1.26424885E1,1.0355001E1,3.588597E1,2.4460453E1,0E0,0E0,0E0,0E0,0E0,0E0,0E0,0E0,0E0,0E0,0E0,0E0,0E0,0E0,0E0,0E0,0E0,0E0,0E0,0E0,0E0,0E0,0E0,0E0,0E0,0E0,0E0,0E0,0E0,0E0,0E0,0E0],"parents":[2147483647,0,0,1,1,2,2,3,3,4,4,5,5,6,6,7,7,8,8,9,9,10,10,11,11,12,12,13,13,14,14,15,15,16,16,17,17,18,18,19,19,20,20,21,21,22,22,23,23,24,24,25,25,26,26,27,27,28,28,29,29,30,30],"right_children":[2,4,6,8,10,12,14,16,18,20,22,24,26,28,30,32,34,36,38,40,42,44,46,48,50,52,54,56,58,60,62,-1,-1,-1,-1,-1,-1,-1,-1,-1,-1,-1,-1,-1,-1,-1,-1,-1,-1,-1,-1,-1,-1,-1,-1,-1,-1,-1,-1,-1,-1,-1,-1],"split_conditions":[1.9E1,8E0,2.2831865E3,2.19522E3,1.7E1,2.45E0,2E0,1E0,3E0,1.2E1,2.54E0,4E0,1.95537E3,2.3E1,4E0,-2.12E1,5E0,2.744778E3,-4.616E1,-7.116919E0,5.05E0,1.13E0,4.74E0,1.4E0,1.9708845E3,1.98529E3,1.0730998E1,2.30098E3,2.46114E3,1E0,3.187E1,3.140645E-2,2.1510844E-3,-1.8963626E-2,1.1995275E-3,3.52275E-2,-7.7632144E-2,6.400891E-2,-2.4675522E-3,4.8810832E-2,1.6320962E-2,-7.0532933E-3,4.1393295E-2,-5.4505635E-2,-5.158871E-3,-4.388381E-2,1.8295227E-2,-4.065624E-2,-2.6047248E-2,-1.971542E-2,2.1411141E-2,-3.7456502E-3,5.1524956E-2,-4.9297895E-2,-8.712175E-4,1.1134263E-1,-2.7869532E-2,4.7437634E-2,-1.5400874E-2,4.374469E-2,-9.895246E-3,9.16479E-3,6.863462E-2],"split_indices":[90,90,13,78,90,89,91,91,91,90,89,91,81,90,91,95,90,12,93,84,96,89,96,89,12,80,84,0,81,76,94,0,0,0,0,0,0,0,0,0,0,0,0,0,0,0,0,0,0,0,0,0,0,0,0,0,0,0,0,0,0,0,0],"split_type":[0,0,0,0,0,0,0,0,0,0,0,0,0,0,0,0,0,0,0,0,0,0,0,0,0,0,0,0,0,0,0,0,0,0,0,0,0,0,0,0,0,0,0,0,0,0,0,0,0,0,0,0,0,0,0,0,0,0,0,0,0,0,0],"sum_hessian":[3.3822574E4,2.6995244E4,6.8273276E3,1.0190748E4,1.6804496E4,5.46585E3,1.3614775E3,8.0514395E3,2.1393088E3,1.3842775E4,2.961722E3,4.4308037E3,1.0350465E3,5.4286926E2,8.1860834E2,1.5821482E3,6.469291E3,1.2928593E3,8.464496E2,6.0358384E3,7.8069365E3,9.216005E2,2.0401215E3,3.5405498E3,8.902539E2,8.5587854E2,1.7916795E2,4.3776007E2,1.051092E2,5.413526E2,2.7725574E2,5.6276215E2,1.01938605E3,3.6870168E3,2.7822742E3,1.2757201E3,1.713918E1,1.06500885E2,7.3994867E2,6.495337E2,5.3863047E3,2.4827335E2,7.558663E3,5.5591335E1,8.660092E2,7.215414E1,1.9679673E3,1.9957631E3,1.5447867E3,7.4886975E2,1.4138417E2,7.37337E2,1.1854155E2,1.4482439E2,3.434357E1,5.658605E0,4.3210147E2,5.9498215E1,4.561098E1,1.9306862E2,3.4828397E2,1.3139557E2,1.4586015E2],"tree_param":{"num_deleted":"0","num_feature":"98","num_nodes":"63","size_leaf_vector":"1"}},{"base_weights":[2.2470027E-1,4.7436216E-1,7.056947E-2,3.7890762E-1,6.956866E-1,-4.127018E-2,4.042303E-1,5.02731E-1,-1.642899E-1,7.2945255E-1,3.9655307E-1,1.4760117E-1,-2.3114346E-1,4.881163E-1,7.130125E-2,5.4119754E-1,1.24400295E-1,-9.1966406E-2,-3.2132205E-1,7.413418E-1,2.6293978E-1,4.5917E-1,-3.6235698E-2,2.4567859E-1,-1.2945953E-1,-3.5664546E-1,2.8346402E-3,5.6135356E-1,2.9199755E-1,1.6118507E-1,-2.4331413E-1,6.5408766E-2,4.4807833E-2,2.450315E-2,-7.924983E-3,-3.7034094E-2,-2.3808868E-3,8.484392E-2,-3.3568665E-2,5.1138517E-2,7.558643E-2,4.0368572E-2,-2.4960637E-2,1.1386808E-2,5.288858E-2,-1.699119E-2,1.0873192E-1,3.9714094E-2,1.207135E-2,-2.9583437E-2,-6.4232238E-3,-2.660034E-2,-4.5350805E-2,9.517552E-3,-2.888073E-2,5.367437E-2,9.2878446E-2,-1.7508706E-2,3.3563174E-2,2.772206E-2,2.836395E-3,-1.5188338E-2,-4.6044078E-2],"categories":[],"categories_nodes":[],"categories_segments":[],"categories_sizes":[],"default_left":[0,0,0,0,0,0,0,0,0,0,0,0,0,0,0,0,0,0,0,0,0,0,0,0,0,0,0,0,0,0,0,0,0,0,0,0,0,0,0,0,0,0,0,0,0,0,0,0,0,0,0,0,0,0,0,0,0,0,0,0,0,0,0],"id":13,"left_children":[1,3,5,7,9,11,13,15,17,19,21,23,25,27,29,31,33,35,37,39,41,43,45,47,49,51,53,55,57,59,61,-1,-1,-1,-1,-1,-1,-1,-1,-1,-1,-1,-1,-1,-1,-1,-1,-1,-1,-1,-1,-1,-1,-1,-1,-1,-1,-1,-1,-1,-1,-1,-1],"loss_changes":[1.3366866E3,2.798601E2,8.015423E2,6.2332996E2,4.005481E1,5.7697046E2,1.5056085E2,1.0975403E2,1.9514812E1,1.97052E1,1.1055168E1,2.1920729E2,2.3559518E2,6.1696655E1,3.0761065E1,7.171069E1,1.7160713E1,2.2372831E1,9.396378E0,1.1295898E1,6.644934E0,8.507736E0,8.056506E0,1.1271088E2,2.287268E1,4.5727844E1,7.548669E1,2.784729E1,2.396782E1,1.3024267E1,4.730401E0,0E0,0E0,0E0,0E0,0E0,0E0,0E0,0E0,0E0,0E0,0E0,0E0,0E0,0E0,0E0,0E0,0E0,0E0,0E0,0E0,0E0,0E0,0E0,0E0,0E0,0E0,0E0,0E0,0E0,0E0,0E0,0E0],"parents":[2147483647,0,0,1,1,2,2,3,3,4,4,5,5,6,6,7,7,8,8,9,9,10,10,11,11,12,12,13,13,14,14,15,15,16,16,17,17,18,18,19,19,20,20,21,21,22,22,23,23,24,24,25,25,26,26,27,27,28,28,29,29,30,30],"right_children":[2,4,6,8,10,12,14,16,18,20,22,24,26,28,30,32,34,36,38,40,42,44,46,48,50,52,54,56,58,60,62,-1,-1,-1,-1,-1,-1,-1,-1,-1,-1,-1,-1,-1,-1,-1,-1,-1,-1,-1,-1,-1,-1,-1,-1,-1,-1,-1,-1,-1,-1,-1,-1],"split_conditions":[1.54E0,1.6E1,1.8E1,1.1E1,2.0498347E3,1.1E1,3.57E0,2.19522E3,1.95563E3,4.706E1,-4.37E0,2.22265E3,1.6E1,2.0703E3,5.94E0,5E0,2.916E1,1.73245E3,-1.5097E2,-2.8747518E0,2.9118279E1,-7.697E1,2.732881E3,6E0,-2.1014597E0,1.93497E3,2.06681E3,1.97422E3,-2.2476585E1,2.0703E3,9.08E0,6.5408766E-2,4.4807833E-2,2.450315E-2,-7.924983E-3,-3.7034094E-2,-2.3808868E-3,8.484392E-2,-3.3568665E-2,5.1138517E-2,7.558643E-2,4.0368572E-2,-2.4960637E-2,1.1386808E-2,5.288858E-2,-1.699119E-2,1.0873192E-1,3.9714094E-2,1.207135E-2,-2.9583437E-2,-6.4232238E-3,-2.660034E-2,-4.5350805E-2,9.517552E-3,-2.888073E-2,5.367437E-2,9.2878446E-2,-1.7508706E-2,3.3563174E-2,2.772206E-2,2.836395E-3,-1.5188338E-2,-4.6044078E-2],"split_indices":[89,90,90,90,12,90,89,78,82,94,93,78,90,82,89,90,92,81,97,10,85,97,13,90,83,78,82,81,85,82,89,0,0,0,0,0,0,0,0,0,0,0,0,0,0,0,0,0,0,0,0,0,0,0,0,0,0,0,0,0,0,0,0],"split_type":[0,0,0,0,0,0,0,0,0,0,0,0,0,0,0,0,0,0,0,0,0,0,0,0,0,0,0,0,0,0,0,0,0,0,0,0,0,0,0,0,0,0,0,0,0,0,0,0,0,0,0,0,0,0,0,0,0,0,0,0,0,0,0],"sum_hessian":[3.4736516E4,1.3258404E4,2.1478113E4,9.265162E3,3.9932417E3,1.6086846E4,5.3912676E3,7.545271E3,1.7198914E3,3.5869146E3,4.0632718E2,8.064812E3,8.022033E3,4.3058774E3,1.0853903E3,6.848522E3,6.967491E2,1.1786378E3,5.4125354E2,3.497198E3,8.97164E1,3.5491608E2,5.1411102E1,5.9564033E3,2.108409E3,5.2210327E3,2.8010005E3,3.1337632E3,1.172114E3,8.445849E2,2.408054E2,3.092909E3,3.7556133E3,4.3743393E2,2.5931516E2,2.3094794E2,9.476899E2,5.8615494E0,5.3539197E2,2.0989015E2,3.2873079E3,7.0554436E1,1.916196E1,6.0062088E1,2.94854E2,4.6703297E1,4.707804E0,2.6917383E3,3.264665E3,5.928062E2,1.5156027E3,2.6990562E3,2.5219766E3,2.1279224E3,6.73078E2,2.9393516E3,1.9441158E2,9.9884254E1,1.0722297E3,4.5019614E2,3.9438876E2,1.7064662E2,7.015878E1],"tree_param":{"num_deleted":"0","num_feature":"98","num_nodes":"63","size_leaf_vector":"1"}},{"base_weights":[-3.6570913E-1,-4.1818163E-1,-1.9249469E-1,-4.8401842E-1,-3.157409E-1,-1.4841713E-1,-3.249124E-1,-5.4588187E-1,-4.239059E-1,-2.6598063E-1,-4.259264E-1,-2.4762629E-1,-6.198658E-2,-4.292513E-1,-1.848557E-1,-5.504202E-1,2.2059967E-1,-2.4247034E-1,-5.735745E-1,-3.9451963E-1,-1.7151923E-1,-4.53883E-1,-1.9386193E-1,-3.246126E-1,-1.3785695E-1,1.8364179E-1,-1.1948142E-1,6.428146E-1,-4.387204E-1,8.936443E-3,-2.6806983E-1,-3.9746333E-2,-5.709986E-2,-3.0972106E-2,6.579856E-2,-3.544205E-2,-1.6559793E-2,4.770131E-2,-5.7609644E-2,-4.0735625E-2,8.15953E-3,-1.2782544E-2,-4.2090133E-2,-1.0802927E-3,-4.661904E-2,1.0190759E-1,-2.3969503E-2,1.17719375E-1,-3.3238813E-2,-2.4834288E-2,-1.1430456E-3,4.0030397E-2,-2.766878E-3,-2.077752E-2,-7.1320916E-4,1.1039138E-1,-4.8220705E-2,-2.0175686E-2,-4.7627445E-2,-2.7562622E-2,3.3259336E-2,-3.7280083E-2,-9.485892E-3],"categories":[],"categories_nodes":[],"categories_segments":[],"categories_sizes":[],"default_left":[0,0,0,0,0,0,0,0,0,0,0,0,0,0,0,0,0,0,0,0,0,0,0,0,0,0,0,0,0,0,0,0,0,0,0,0,0,0,0,0,0,0,0,0,0,0,0,0,0,0,0,0,0,0,0,0,0,0,0,0,0,0,0],"id":14,"left_children":[1,3,5,7,9,11,13,15,17,19,21,23,25,27,29,31,33,35,37,39,41,43,45,47,49,51,53,55,57,59,61,-1,-1,-1,-1,-1,-1,-1,-1,-1,-1,-1,-1,-1,-1,-1,-1,-1,-1,-1,-1,-1,-1,-1,-1,-1,-1,-1,-1,-1,-1,-1,-1],"loss_changes":[2.7438647E2,1.5615356E2,4.0941742E1,5.2228027E1,4.961731E1,4.5180428E1,2.553836E1,2.4292725E1,1.942666E2,7.583246E1,1.8208282E1,2.0690567E1,3.982099E1,1.0472733E1,1.2099865E1,2.1516602E1,9.856537E0,2.7805725E1,1.066687E1,1.6211609E1,3.9227005E1,1.37161255E1,1.7197674E1,1.7223648E1,1.4150095E1,2.4501677E1,2.2657497E1,5.302033E0,8.764267E0,2.0936218E1,9.485683E0,0E0,0E0,0E0,0E0,0E0,0E0,0E0,0E0,0E0,0E0,0E0,0E0,0E0,0E0,0E0,0E0,0E0,0E0,0E0,0E0,0E0,0E0,0E0,0E0,0E0,0E0,0E0,0E0,0E0,0E0,0E0,0E0],"parents":[2147483647,0,0,1,1,2,2,3,3,4,4,5,5,6,6,7,7,8,8,9,9,10,10,11,11,12,12,13,13,14,14,15,15,16,16,17,17,18,18,19,19,20,20,21,21,22,22,23,23,24,24,25,25,26,26,27,27,28,28,29,29,30,30],"right_children":[2,4,6,8,10,12,14,16,18,20,22,24,26,28,30,32,34,36,38,40,42,44,46,48,50,52,54,56,58,60,62,-1,-1,-1,-1,-1,-1,-1,-1,-1,-1,-1,-1,-1,-1,-1,-1,-1,-1,-1,-1,-1,-1,-1,-1,-1,-1,-1,-1,-1,-1,-1,-1],"split_conditions":[2.0703E3,2.06E0,1.8E1,1E1,1.7E1,9E0,6.635E1,1.3084E2,1.7E1,1.1E1,9.274371E0,6.783E1,2.736E1,1.8513973E1,2.27738E3,-6.509E1,5E0,2E0,-8.261E1,1.1445936E0,-9.73E0,-6.91E1,1.65461E3,2.0337092E3,-1.141E1,2.3502249E3,7.566E1,5.55E0,2.3525E3,2.1745205E3,1.8823992E1,-3.9746333E-2,-5.709986E-2,-3.0972106E-2,6.579856E-2,-3.544205E-2,-1.6559793E-2,4.770131E-2,-5.7609644E-2,-4.0735625E-2,8.15953E-3,-1.2782544E-2,-4.2090133E-2,-1.0802927E-3,-4.661904E-2,1.0190759E-1,-2.3969503E-2,1.17719375E-1,-3.3238813E-2,-2.4834288E-2,-1.1430456E-3,4.0030397E-2,-2.766878E-3,-2.077752E-2,-7.1320916E-4,1.1039138E-1,-4.8220705E-2,-2.0175686E-2,-4.7627445E-2,-2.7562622E-2,3.3259336E-2,-3.7280083E-2,-9.485892E-3],"split_indices":[80,89,90,90,90,90,96,96,90,90,83,96,96,4,81,97,90,91,93,9,97,93,2,13,93,13,96,96,82,13,85,0,0,0,0,0,0,0,0,0,0,0,0,0,0,0,0,0,0,0,0,0,0,0,0,0,0,0,0,0,0,0,0],"split_type":[0,0,0,0,0,0,0,0,0,0,0,0,0,0,0,0,0,0,0,0,0,0,0,0,0,0,0,0,0,0,0,0,0,0,0,0,0,0,0,0,0,0,0,0,0,0,0,0,0,0,0,0,0,0,0,0,0,0,0,0,0,0,0],"sum_hessian":[3.0196725E4,2.3174863E4,7.021861E3,1.4105676E4,9.069188E3,5.269827E3,1.7520337E3,6.9476133E3,7.158062E3,6.2500503E3,2.8191382E3,2.4526694E3,2.8171577E3,1.00286115E3,7.491725E2,6.9069985E3,4.0614765E1,3.2368337E3,3.9212285E3,2.6461318E3,3.6039182E3,2.5151807E3,3.0395752E2,1.4404548E3,1.01221466E3,5.3392773E2,2.28323E3,8.194696E0,9.9466644E2,2.2532349E2,5.23849E2,8.214635E2,6.085535E3,1.8489065E1,2.21257E1,1.3162921E3,1.9205415E3,8.939833E0,3.9122886E3,2.576803E3,6.932906E1,3.0679082E3,5.360102E2,6.8026665E1,2.447154E3,1.0294224E1,2.936633E2,6.6448107E0,1.43381E3,5.39646E2,4.7256863E2,2.6318402E2,2.707437E2,1.2780103E3,1.0052197E3,5.8257346E0,2.3689623E0,1.369422E2,8.5772424E2,1.19982216E2,1.0534127E2,3.2573996E2,1.9810905E2],"tree_param":{"num_deleted":"0","num_feature":"98","num_nodes":"63","size_leaf_vector":"1"}},{"base_weights":[8.865867E-2,1.534839E-1,-1.7410168E-1,2.5863329E-2,2.74068E-1,-2.5340724E-1,-5.4028425E-3,-1.0114531E-1,1.2097381E-1,3.2778057E-1,7.375272E-2,-2.9924718E-1,-6.655747E-2,-1.5282165E-1,6.9786325E-2,-1.2647803E-1,1.03666805E-1,2.7839175E-1,6.403184E-2,2.989932E-1,4.737146E-1,-5.0378643E-4,2.9229242E-1,-3.254443E-1,-5.291621E-2,-2.5103527E-1,1.1743894E-1,9.307963E-2,-2.2428454E-1,2.6130235E-1,-2.5482142E-2,-3.0541334E-3,-1.9611793E-2,-1.25821205E-2,1.8071247E-2,1.3121629E-2,3.8040172E-2,4.908377E-4,2.0436935E-2,4.106866E-2,2.3436166E-2,3.9557118E-2,7.083323E-2,-4.8124652E-2,2.226323E-3,7.280544E-2,2.5639428E-2,-3.3894993E-2,1.95739E-3,4.045977E-2,-1.8846922E-2,1.6648663E-2,-4.1297358E-2,-6.6567073E-3,4.985675E-2,-2.4461411E-2,2.877349E-2,-2.8653333E-2,2.2789054E-2,-2.2380805E-2,3.7349068E-2,-6.090884E-3,4.2722195E-2],"categories":[],"categories_nodes":[],"categories_segments":[],"categories_sizes":[],"default_left":[0,0,0,0,0,0,0,0,0,0,0,0,0,0,0,0,0,0,0,0,0,0,0,0,0,0,0,0,0,0,0,0,0,0,0,0,0,0,0,0,0,0,0,0,0,0,0,0,0,0,0,0,0,0,0,0,0,0,0,0,0,0,0],"id":15,"left_children":[1,3,5,7,9,11,13,15,17,19,21,23,25,27,29,31,33,35,37,39,41,43,45,47,49,51,53,55,57,59,61,-1,-1,-1,-1,-1,-1,-1,-1,-1,-1,-1,-1,-1,-1,-1,-1,-1,-1,-1,-1,-1,-1,-1,-1,-1,-1,-1,-1,-1,-1,-1,-1],"loss_changes":[5.75749E2,4.1721136E2,8.948868E1,1.5913449E2,1.4996179E2,3.8951477E1,2.3730888E1,2.9280983E1,6.750174E1,4.6036743E1,4.7853203E1,2.3558441E1,3.0498074E1,1.2728226E1,2.5876127E1,3.3536087E1,1.1010943E1,2.9986282E1,4.590707E1,6.620044E1,3.2892456E1,2.4111183E1,1.1511997E1,1.5392761E1,2.1929754E1,3.0396406E1,3.1597576E1,1.082033E1,1.584436E1,2.5722328E1,1.5226087E1,0E0,0E0,0E0,0E0,0E0,0E0,0E0,0E0,0E0,0E0,0E0,0E0,0E0,0E0,0E0,0E0,0E0,0E0,0E0,0E0,0E0,0E0,0E0,0E0,0E0,0E0,0E0,0E0,0E0,0E0,0E0,0E0],"parents":[2147483647,0,0,1,1,2,2,3,3,4,4,5,5,6,6,7,7,8,8,9,9,10,10,11,11,12,12,13,13,14,14,15,15,16,16,17,17,18,18,19,19,20,20,21,21,22,22,23,23,24,24,25,25,26,26,27,27,28,28,29,29,30,30],"right_children":[2,4,6,8,10,12,14,16,18,20,22,24,26,28,30,32,34,36,38,40,42,44,46,48,50,52,54,56,58,60,62,-1,-1,-1,-1,-1,-1,-1,-1,-1,-1,-1,-1,-1,-1,-1,-1,-1,-1,-1,-1,-1,-1,-1,-1,-1,-1,-1,-1,-1,-1,-1,-1],"split_conditions":[1.9E1,1E1,2.14E0,1.4E0,1.7E1,4E0,2E0,7.013E1,-5.591E1,1.5302818E0,2.0703E3,2.40196E3,3.283E1,-4.269E1,-4.99E1,-1.569E1,1.81525E3,1.90977E3,6.706E1,-5.587536E-1,-7.22E0,4.45E0,2.06681E3,4.64E1,2.36574E3,-7.116919E0,1.99336E3,-6.91E1,1.1481E2,6.61E0,5.821E1,-3.0541334E-3,-1.9611793E-2,-1.25821205E-2,1.8071247E-2,1.3121629E-2,3.8040172E-2,4.908377E-4,2.0436935E-2,4.106866E-2,2.3436166E-2,3.9557118E-2,7.083323E-2,-4.8124652E-2,2.226323E-3,7.280544E-2,2.5639428E-2,-3.3894993E-2,1.95739E-3,4.045977E-2,-1.8846922E-2,1.6648663E-2,-4.1297358E-2,-6.6567073E-3,4.985675E-2,-2.4461411E-2,2.877349E-2,-2.8653333E-2,2.2789054E-2,-2.2380805E-2,3.7349068E-2,-6.090884E-3,4.2722195E-2],"split_indices":[90,90,89,89,90,91,91,96,97,8,82,82,96,95,97,93,77,78,96,10,97,96,80,94,81,84,82,93,96,96,94,0,0,0,0,0,0,0,0,0,0,0,0,0,0,0,0,0,0,0,0,0,0,0,0,0,0,0,0,0,0,0,0],"split_type":[0,0,0,0,0,0,0,0,0,0,0,0,0,0,0,0,0,0,0,0,0,0,0,0,0,0,0,0,0,0,0,0,0,0,0,0,0,0,0,0,0,0,0,0,0,0,0,0,0,0,0,0,0,0,0,0,0,0,0,0,0,0,0],"sum_hessian":[3.3798414E4,2.7110451E4,6.687965E3,1.3171532E4,1.3938918E4,4.54898E3,2.1389846E3,5.6399683E3,7.5315645E3,1.0991121E4,2.9477966E3,3.652347E3,8.9663324E2,7.221253E2,1.4168593E3,5.019501E3,6.204676E2,1.9996309E3,5.5319336E3,9.182753E3,1.8083684E3,2.2009458E3,7.468507E2,3.3009697E3,3.5137698E2,4.4754898E2,4.4908426E2,1.6253741E2,5.595879E2,4.7009506E2,9.467642E2,2.1117578E3,2.907743E3,1.5579224E2,4.6467535E2,8.195323E2,1.1800985E3,3.892907E3,1.6390265E3,3.363956E3,5.818797E3,1.3585621E3,4.498062E2,9.860879E1,2.102337E3,5.5375465E1,6.914753E2,3.176639E3,1.2433084E2,7.985804E1,2.7151892E2,1.2506601E2,3.2248297E2,3.0342047E2,1.4566379E2,5.9338524E1,1.0319889E2,4.9219592E2,6.7391945E1,8.8109245E1,3.819858E2,8.7885425E2,6.790994E1],"tree_param":{"num_deleted":"0","num_feature":"98","num_nodes":"63","size_leaf_vector":"1"}},{"base_weights":[2.0870204E-1,3.510961E-1,-1.9555997E-2,2.5198993E-1,5.882382E-1,-1.3940595E-1,2.1552233E-1,3.9190114E-1,-1.9034736E-1,6.3582486E-1,3.8006538E-1,3.987695E-2,-3.0672982E-1,3.0608237E-1,-7.2768584E-2,4.3779132E-1,5.4796536E-2,1.7200898E-1,-2.8931382E-1,6.5847886E-1,3.7392497E-1,5.054249E-1,-1.2127512E-2,1.6729729E-1,-1.40754E-1,-2.3467681E-1,-4.6856007E-1,1.4046031E-1,3.8318872E-1,1.5784293E-1,-1.9915771E-1,5.322912E-2,3.296298E-2,1.5745627E-2,-8.259823E-3,2.8601844E-2,-2.257584E-2,-8.8085355E-3,-3.4405988E-2,6.8085805E-2,4.6438657E-2,5.01023E-2,1.0067876E-2,-7.8605324E-2,5.262279E-2,9.16791E-2,-1.1950463E-2,2.4913883E-2,-6.338971E-3,-3.1218363E-2,-6.181733E-3,-3.0617638E-2,-5.833182E-3,-3.0248225E-2,-5.0932515E-2,5.1763393E-2,7.0825554E-3,4.489926E-2,1.1558578E-2,2.4412183E-2,-1.4437022E-2,-1.4946404E-2,-5.209529E-2],"categories":[],"categories_nodes":[],"categories_segments":[],"categories_sizes":[],"default_left":[0,0,0,0,0,0,0,0,0,0,0,0,0,0,0,0,0,0,0,0,0,0,0,0,0,0,0,0,0,0,0,0,0,0,0,0,0,0,0,0,0,0,0,0,0,0,0,0,0,0,0,0,0,0,0,0,0,0,0,0,0,0,0],"id":16,"left_children":[1,3,5,7,9,11,13,15,17,19,21,23,25,27,29,31,33,35,37,39,41,43,45,47,49,51,53,55,57,59,61,-1,-1,-1,-1,-1,-1,-1,-1,-1,-1,-1,-1,-1,-1,-1,-1,-1,-1,-1,-1,-1,-1,-1,-1,-1,-1,-1,-1,-1,-1,-1,-1],"loss_changes":[1.1254834E3,5.0102588E2,3.748522E2,9.309345E2,6.2013916E1,2.6435867E2,1.1731677E2,1.7675073E2,1.2968623E2,3.009375E1,5.7616516E1,9.795425E1,5.3039795E1,4.3608337E1,3.1356754E1,1.0262744E2,1.9341385E1,3.5261726E1,3.1254501E1,2.012146E1,1.4168579E1,2.4270462E1,2.8516731E1,4.7128E1,2.380402E1,3.9773834E1,9.346161E0,2.853035E1,4.1018524E1,9.970974E0,1.1031109E1,0E0,0E0,0E0,0E0,0E0,0E0,0E0,0E0,0E0,0E0,0E0,0E0,0E0,0E0,0E0,0E0,0E0,0E0,0E0,0E0,0E0,0E0,0E0,0E0,0E0,0E0,0E0,0E0,0E0,0E0,0E0,0E0],"parents":[2147483647,0,0,1,1,2,2,3,3,4,4,5,5,6,6,7,7,8,8,9,9,10,10,11,11,12,12,13,13,14,14,15,15,16,16,17,17,18,18,19,19,20,20,21,21,22,22,23,23,24,24,25,25,26,26,27,27,28,28,29,29,30,30],"right_children":[2,4,6,8,10,12,14,16,18,20,22,24,26,28,30,32,34,36,38,40,42,44,46,48,50,52,54,56,58,60,62,-1,-1,-1,-1,-1,-1,-1,-1,-1,-1,-1,-1,-1,-1,-1,-1,-1,-1,-1,-1,-1,-1,-1,-1,-1,-1,-1,-1,-1,-1,-1,-1],"split_conditions":[2.2E0,1.7E1,1.7E1,1.1E1,4E0,1.1E1,4.54E0,2.22265E3,1E0,2.40196E3,1.9708845E3,2.06407E3,2.06681E3,-4.936E1,1.95563E3,6E0,6E0,8.2870615E-1,1.2E1,7.307E1,2.3E1,-1.1073E2,1.43E1,3.42E0,-2.0559926E0,1.6E1,1E0,5.31E0,8.333E1,7.27E0,9.08E0,5.322912E-2,3.296298E-2,1.5745627E-2,-8.259823E-3,2.8601844E-2,-2.257584E-2,-8.8085355E-3,-3.4405988E-2,6.8085805E-2,4.6438657E-2,5.01023E-2,1.0067876E-2,-7.8605324E-2,5.262279E-2,9.16791E-2,-1.1950463E-2,2.4913883E-2,-6.338971E-3,-3.1218363E-2,-6.181733E-3,-3.0617638E-2,-5.833182E-3,-3.0248225E-2,-5.0932515E-2,5.1763393E-2,7.0825554E-3,4.489926E-2,1.1558578E-2,2.4412183E-2,-1.4437022E-2,-1.4946404E-2,-5.209529E-2],"split_indices":[89,90,90,90,91,90,89,82,91,82,12,82,82,97,82,90,90,8,90,96,90,97,96,89,83,90,91,96,96,89,89,0,0,0,0,0,0,0,0,0,0,0,0,0,0,0,0,0,0,0,0,0,0,0,0,0,0,0,0,0,0,0,0],"split_type":[0,0,0,0,0,0,0,0,0,0,0,0,0,0,0,0,0,0,0,0,0,0,0,0,0,0,0,0,0,0,0,0,0,0,0,0,0,0,0,0,0,0,0,0,0,0,0,0,0,0,0,0,0,0,0,0,0,0,0,0,0,0,0],"sum_hessian":[3.462629E4,2.1323516E4,1.3302772E4,1.5040054E4,6.2834614E3,8.811046E3,4.491727E3,1.1426096E4,3.6139585E3,5.1126875E3,1.1707738E3,4.2538857E3,4.5571597E3,3.4179836E3,1.0737435E3,1.0056766E4,1.36933E3,7.7513544E2,2.838823E3,4.7042603E3,4.0842734E2,8.8697473E2,2.837991E2,2.4943794E3,1.7595066E3,3.1549194E3,1.4022402E3,1.0866705E3,2.331313E3,3.8004987E2,6.9369366E2,5.365259E3,4.691507E3,7.8365E2,5.8567993E2,6.026755E2,1.7245998E2,6.077057E2,2.2311172E3,4.2156787E3,4.8858185E2,2.781942E2,1.3023312E2,1.3477614E1,8.734971E2,2.8625147E1,2.5517393E2,1.8411198E3,6.5325964E2,5.5381396E2,1.2056926E3,2.244247E3,9.106723E2,2.7801636E2,1.1242239E3,1.6835417E2,9.183164E2,1.8706422E3,4.606707E2,2.957954E2,8.425448E1,6.0216754E2,9.152609E1],"tree_param":{"num_deleted":"0","num_feature":"98","num_nodes":"63","size_leaf_vector":"1"}},{"base_weights":[-3.4679085E-1,-3.980883E-1,-1.8005417E-1,-4.4639555E-1,-2.6466426E-1,-2.4393626E-1,-9.1548294E-2,-5.399399E-1,-4.0999702E-1,-2.766349E-1,7.377483E-3,-1.0629969E-1,-3.0727774E-1,1.0466859E0,-9.69444E-2,-3.3638886E-1,-5.502728E-1,-4.146508E-1,-4.5874722E-2,4.5162043E-1,-2.8133732E-1,5.806871E-1,-5.4977283E-2,-6.618028E-2,-3.7356073E-1,-3.304386E-1,-1.08371645E-1,1.2675648E0,4.9025506E-2,-7.205364E-2,-3.2981908E-1,-4.134893E-2,2.6123483E-2,9.4536446E-2,-5.5132475E-2,-2.631688E-2,-4.2489737E-2,1.8590605E-2,-5.09167E-2,-2.0504337E-2,7.123924E-2,-3.1290263E-2,-2.1501493E-2,1.08067445E-1,-5.991382E-2,-1.038504E-2,8.365997E-2,-1.803202E-2,5.3910874E-3,5.7182442E-2,-4.2363238E-2,-2.9128084E-2,-4.5228645E-2,8.7991E-2,-1.7551161E-2,1.3392045E-1,4.2157754E-2,4.7983512E-2,-4.0300813E-2,-1.2779722E-2,3.6112934E-3,5.976863E-2,-3.6716413E-2],"categories":[],"categories_nodes":[],"categories_segments":[],"categories_sizes":[],"default_left":[0,0,0,0,0,0,0,0,0,0,0,0,0,0,0,0,0,0,0,0,0,0,0,0,0,0,0,0,0,0,0,0,0,0,0,0,0,0,0,0,0,0,0,0,0,0,0,0,0,0,0,0,0,0,0,0,0,0,0,0,0,0,0],"id":17,"left_children":[1,3,5,7,9,11,13,15,17,19,21,23,25,27,29,31,33,35,37,39,41,43,45,47,49,51,53,55,57,59,61,-1,-1,-1,-1,-1,-1,-1,-1,-1,-1,-1,-1,-1,-1,-1,-1,-1,-1,-1,-1,-1,-1,-1,-1,-1,-1,-1,-1,-1,-1,-1,-1],"loss_changes":[2.515127E2,1.4485669E2,3.9115204E1,5.6001465E1,1.9480713E1,3.5011917E1,1.7934385E1,9.536743E0,2.0131348E1,1.974768E1,9.079253E0,1.3575703E1,1.2643738E1,2.9753857E0,1.67316E1,1.0515709E1,7.439331E0,1.8112305E1,1.6329466E1,6.506193E0,1.185144E1,1.5343172E1,1.0072762E1,1.5143543E1,8.068895E0,1.1628479E1,1.9300467E1,1.1696434E-1,8.825331E-1,1.575865E1,9.878206E0,0E0,0E0,0E0,0E0,0E0,0E0,0E0,0E0,0E0,0E0,0E0,0E0,0E0,0E0,0E0,0E0,0E0,0E0,0E0,0E0,0E0,0E0,0E0,0E0,0E0,0E0,0E0,0E0,0E0,0E0,0E0,0E0],"parents":[2147483647,0,0,1,1,2,2,3,3,4,4,5,5,6,6,7,7,8,8,9,9,10,10,11,11,12,12,13,13,14,14,15,15,16,16,17,17,18,18,19,19,20,20,21,21,22,22,23,23,24,24,25,25,26,26,27,27,28,28,29,29,30,30],"right_children":[2,4,6,8,10,12,14,16,18,20,22,24,26,28,30,32,34,36,38,40,42,44,46,48,50,52,54,56,58,60,62,-1,-1,-1,-1,-1,-1,-1,-1,-1,-1,-1,-1,-1,-1,-1,-1,-1,-1,-1,-1,-1,-1,-1,-1,-1,-1,-1,-1,-1,-1,-1,-1],"split_conditions":[2.0703E3,2.57E0,6.635E1,1.09E0,1.0766E2,2.627E1,1.98194E3,1.71589E3,1.1481E2,1.6396945E3,2.217E1,7.3393977E-1,-4.37E0,4.8631058E1,-2.58E0,5.8892643E1,-4.3127106E1,1.7084744E3,1.8105E3,4.9E-1,4.19E0,2.0091E3,1.9987776E3,4.0256794E1,-9.512E1,7.548117E1,-5.8E0,1E2,3.082893E-1,-8.96E0,-5.6994057E-1,-4.134893E-2,2.6123483E-2,9.4536446E-2,-5.5132475E-2,-2.631688E-2,-4.2489737E-2,1.8590605E-2,-5.09167E-2,-2.0504337E-2,7.123924E-2,-3.1290263E-2,-2.1501493E-2,1.08067445E-1,-5.991382E-2,-1.038504E-2,8.365997E-2,-1.803202E-2,5.3910874E-3,5.7182442E-2,-4.2363238E-2,-2.9128084E-2,-4.5228645E-2,8.7991E-2,-1.7551161E-2,1.3392045E-1,4.2157754E-2,4.7983512E-2,-4.0300813E-2,-1.2779722E-2,3.6112934E-3,5.976863E-2,-3.6716413E-2],"split_indices":[80,89,96,89,96,96,2,0,96,13,92,9,93,4,95,4,85,13,81,87,89,78,11,6,93,5,95,42,9,93,9,0,0,0,0,0,0,0,0,0,0,0,0,0,0,0,0,0,0,0,0,0,0,0,0,0,0,0,0,0,0,0,0],"split_type":[0,0,0,0,0,0,0,0,0,0,0,0,0,0,0,0,0,0,0,0,0,0,0,0,0,0,0,0,0,0,0,0,0,0,0,0,0,0,0,0,0,0,0,0,0,0,0,0,0,0,0,0,0,0,0,0,0,0,0,0,0,0,0],"sum_hessian":[2.9413139E4,2.2491969E4,6.921169E3,1.6511504E4,5.9804653E3,4.0187476E3,2.9024211E3,4.62119E3,1.1890314E4,5.7283833E3,2.5208214E2,1.2674176E3,2.75133E3,1.2784274E1,2.8896367E3,2.2487584E2,4.396314E3,1.1740127E4,1.501871E2,3.614167E1,5.692241E3,2.3912289E1,2.2816985E2,1.1030785E3,1.6433904E2,2.4637827E3,2.8754724E2,1.0245432E1,2.5388424E0,2.6117861E3,2.778508E2,1.9945227E2,2.5423561E1,2.4589083E0,4.3938555E3,7.455034E2,1.0994624E4,1.00504425E2,4.968269E1,1.0333653E1,2.5808016E1,3.8541763E3,1.8380652E3,1.6853949E1,7.05834E0,2.1714996E2,1.1019879E1,5.6529535E2,5.3778314E2,7.7421474E0,1.565969E2,1.867138E3,5.9664484E2,1.7522045E1,2.700252E2,8.908073E0,1.3373588E0,1.2684479E0,1.2703944E0,1.7234338E3,8.883521E2,1.0173606E1,2.676772E2],"tree_param":{"num_deleted":"0","num_feature":"98","num_nodes":"63","size_leaf_vector":"1"}},{"base_weights":[8.42392E-2,1.425497E-1,-1.5541455E-1,-1.3365579E-2,2.1547198E-1,-2.3565598E-1,6.712617E-4,-7.139202E-2,1.9784036E-1,2.4475716E-1,6.274357E-2,-2.6941925E-1,-6.508822E-3,-4.3965075E-2,2.0268668E-1,1.156142E-1,-1.18612066E-1,3.0565503E-1,3.6903642E-2,1.3251634E-1,3.1459758E-1,-1.069782E-1,1.3118328E-1,-2.8935164E-1,2.3384871E-2,-1.5116781E-1,2.149247E-1,-6.708837E-2,3.2394788E-1,6.756087E-1,1.6540936E-1,7.872245E-3,7.6124206E-2,-2.935268E-2,-8.4299175E-3,3.1946834E-2,-6.9029786E-2,5.310142E-2,-3.991881E-3,2.1680379E-4,1.9285029E-2,2.9599518E-2,5.3843737E-2,-5.061034E-2,-8.110888E-3,-3.97035E-2,1.5764056E-2,-3.2286033E-2,-1.5922597E-2,7.548032E-2,-4.3408554E-3,5.4656705E-3,-2.9865688E-2,-1.2085101E-2,3.393673E-2,4.74981E-3,-1.3664941E-2,2.1044184E-2,9.830226E-2,1.3456538E-2,8.433637E-2,2.8682394E-2,7.6058144E-3],"categories":[],"categories_nodes":[],"categories_segments":[],"categories_sizes":[],"default_left":[0,0,0,0,0,0,0,0,0,0,0,0,0,0,0,0,0,0,0,0,0,0,0,0,0,0,0,0,0,0,0,0,0,0,0,0,0,0,0,0,0,0,0,0,0,0,0,0,0,0,0,0,0,0,0,0,0,0,0,0,0,0,0],"id":18,"left_children":[1,3,5,7,9,11,13,15,17,19,21,23,25,27,29,31,33,35,37,39,41,43,45,47,49,51,53,55,57,59,61,-1,-1,-1,-1,-1,-1,-1,-1,-1,-1,-1,-1,-1,-1,-1,-1,-1,-1,-1,-1,-1,-1,-1,-1,-1,-1,-1,-1,-1,-1,-1,-1],"loss_changes":[4.7155417E2,3.0857568E2,8.270982E1,1.0601783E2,8.269104E1,3.3742783E1,2.0236553E1,5.9937233E1,3.2339325E1,1.21586914E2,3.4588654E1,2.2192993E1,1.800727E1,1.5659023E1,7.0480576E0,3.2537086E1,3.2495857E1,1.5578606E1,2.8455904E1,4.6817566E1,3.966382E1,8.796297E0,2.9712807E1,1.5468048E1,1.1914596E1,1.0337633E1,9.323316E0,1.3797693E1,7.937134E0,2.550355E0,4.0765705E0,0E0,0E0,0E0,0E0,0E0,0E0,0E0,0E0,0E0,0E0,0E0,0E0,0E0,0E0,0E0,0E0,0E0,0E0,0E0,0E0,0E0,0E0,0E0,0E0,0E0,0E0,0E0,0E0,0E0,0E0,0E0,0E0],"parents":[2147483647,0,0,1,1,2,2,3,3,4,4,5,5,6,6,7,7,8,8,9,9,10,10,11,11,12,12,13,13,14,14,15,15,16,16,17,17,18,18,19,19,20,20,21,21,22,22,23,23,24,24,25,25,26,26,27,27,28,28,29,29,30,30],"right_children":[2,4,6,8,10,12,14,16,18,20,22,24,26,28,30,32,34,36,38,40,42,44,46,48,50,52,54,56,58,60,62,-1,-1,-1,-1,-1,-1,-1,-1,-1,-1,-1,-1,-1,-1,-1,-1,-1,-1,-1,-1,-1,-1,-1,-1,-1,-1,-1,-1,-1,-1,-1,-1],"split_conditions":[1.9E1,7E0,2.09E0,2.16949E3,1.7E1,2.2905457E3,4.25E0,1E0,3E0,1.1E1,2.47E0,8.209E1,3E0,2.3E1,0E0,2.3049383E1,7.6E-1,2.744778E3,-9.344E1,1.48E0,-6.05E0,1.13E0,5.55E0,4E0,-8.0914867E-1,1E0,3.305E1,-4.674E1,1.1716E2,1.9E-1,1E0,7.872245E-3,7.6124206E-2,-2.935268E-2,-8.4299175E-3,3.1946834E-2,-6.9029786E-2,5.310142E-2,-3.991881E-3,2.1680379E-4,1.9285029E-2,2.9599518E-2,5.3843737E-2,-5.061034E-2,-8.110888E-3,-3.97035E-2,1.5764056E-2,-3.2286033E-2,-1.5922597E-2,7.548032E-2,-4.3408554E-3,5.4656705E-3,-2.9865688E-2,-1.2085101E-2,3.393673E-2,4.74981E-3,-1.3664941E-2,2.1044184E-2,9.830226E-2,1.3456538E-2,8.433637E-2,2.8682394E-2,7.6058144E-3],"split_indices":[90,90,89,3,90,11,89,91,91,90,89,96,91,90,42,85,89,12,97,89,97,89,96,91,9,76,96,97,96,88,76,0,0,0,0,0,0,0,0,0,0,0,0,0,0,0,0,0,0,0,0,0,0,0,0,0,0,0,0,0,0,0,0],"split_type":[0,0,0,0,0,0,0,0,0,0,0,0,0,0,0,0,0,0,0,0,0,0,0,0,0,0,0,0,0,0,0,0,0,0,0,0,0,0,0,0,0,0,0,0,0,0,0,0,0,0,0,0,0,0,0,0,0,0,0,0,0,0,0],"sum_hessian":[3.3741734E4,2.7138928E4,6.602805E3,8.64846E3,1.8490469E4,4.3605835E3,2.2422214E3,6.785016E3,1.8634443E3,1.5514929E4,2.9755393E3,3.8004387E3,5.601446E2,1.8370896E3,4.0513193E2,1.3675681E3,5.4174478E3,1.1153501E3,7.480943E2,5.952132E3,9.562797E3,8.549096E2,2.1206296E3,3.5582275E3,2.4221136E2,3.3899918E2,2.2114543E2,1.7292256E3,1.0786402E2,2.8349524E1,3.767824E2,1.2947092E3,7.2858894E1,8.872112E2,4.530237E3,1.1007623E3,1.458771E1,9.986503E1,6.4822925E2,1.8836473E3,4.0684841E3,8.831195E3,7.3160187E2,5.0908173E1,8.0400146E2,1.00483E2,2.0201466E3,2.8284033E3,7.298241E2,1.9406025E1,2.2280533E2,1.4177634E2,1.9722284E2,5.9805325E1,1.6134012E2,6.533284E2,1.0758971E3,9.314233E1,1.4721699E1,7.1361556E0,2.1213367E1,1.5879471E2,2.179877E2],"tree_param":{"num_deleted":"0","num_feature":"98","num_nodes":"63","size_leaf_vector":"1"}},{"base_weights":[1.939319E-1,1.0035038E-1,4.470313E-1,2.7358454E-1,-1.8445578E-1,5.1449955E-1,1.9974707E-1,3.4648594E-1,-5.4574396E-2,-2.7304557E-1,2.2044495E-2,5.27976E-1,-8.124247E-4,3.8886026E-1,6.61133E-2,4.5020187E-1,2.3885143E-1,-2.3083611E-1,1.52382E-3,-1.0811203E-2,-3.4117633E-1,9.8060034E-2,-2.6139966E-1,3.667853E-1,5.778636E-1,1.1086844E-1,-6.408272E-1,-2.401803E-1,4.374968E-1,-1.7681806E-1,1.3155203E-1,2.3557067E-2,5.0132908E-2,-9.262665E-3,2.798531E-2,-5.063892E-2,-1.533581E-2,1.0342974E-2,-1.5812723E-2,1.5830683E-2,-2.6118789E-2,-1.5385819E-2,-3.9006326E-2,-1.6863221E-2,1.728723E-2,6.845224E-2,-2.7520765E-2,5.2232273E-2,2.4143267E-2,6.834839E-2,4.926545E-2,8.404735E-2,2.8063224E-3,-7.081787E-2,2.16254E-2,2.4652708E-2,-5.0991513E-2,5.6806665E-2,1.322792E-2,1.9560097E-2,-4.5280755E-2,2.3709442E-2,-8.241268E-3],"categories":[],"categories_nodes":[],"categories_segments":[],"categories_sizes":[],"default_left":[0,0,0,0,0,0,0,0,0,0,0,0,0,0,0,0,0,0,0,0,0,0,0,0,0,0,0,0,0,0,0,0,0,0,0,0,0,0,0,0,0,0,0,0,0,0,0,0,0,0,0,0,0,0,0,0,0,0,0,0,0,0,0],"id":19,"left_children":[1,3,5,7,9,11,13,15,17,19,21,23,25,27,29,31,33,35,37,39,41,43,45,47,49,51,53,55,57,59,61,-1,-1,-1,-1,-1,-1,-1,-1,-1,-1,-1,-1,-1,-1,-1,-1,-1,-1,-1,-1,-1,-1,-1,-1,-1,-1,-1,-1,-1,-1,-1,-1],"loss_changes":[8.2003784E2,1.2472695E3,1.5582361E2,3.7606128E2,1.7491861E2,5.0987183E1,5.06437E1,1.4347217E2,2.8260937E1,1.1953827E2,6.1892147E1,5.7323364E1,1.3516821E1,2.5497025E1,1.8718496E1,7.1746216E1,8.583658E1,1.46539345E1,3.5305496E1,5.8513004E1,4.857544E1,4.5217438E1,8.122875E0,3.2897263E1,4.8821045E1,9.704245E0,1.774991E0,8.030331E0,3.0640701E1,2.5783136E1,2.0953997E1,0E0,0E0,0E0,0E0,0E0,0E0,0E0,0E0,0E0,0E0,0E0,0E0,0E0,0E0,0E0,0E0,0E0,0E0,0E0,0E0,0E0,0E0,0E0,0E0,0E0,0E0,0E0,0E0,0E0,0E0,0E0,0E0],"parents":[2147483647,0,0,1,1,2,2,3,3,4,4,5,5,6,6,7,7,8,8,9,9,10,10,11,11,12,12,13,13,14,14,15,15,16,16,17,17,18,18,19,19,20,20,21,21,22,22,23,23,24,24,25,25,26,26,27,27,28,28,29,29,30,30],"right_children":[2,4,6,8,10,12,14,16,18,20,22,24,26,28,30,32,34,36,38,40,42,44,46,48,50,52,54,56,58,60,62,-1,-1,-1,-1,-1,-1,-1,-1,-1,-1,-1,-1,-1,-1,-1,-1,-1,-1,-1,-1,-1,-1,-1,-1,-1,-1,-1,-1,-1,-1,-1,-1],"split_conditions":[1.8E1,1.1E1,2.0703E3,2.19522E3,1.6E1,1.0766E2,2E0,6E0,-2.1014597E0,1E0,2.0442E3,-5.051E1,1.98102E3,-2.7554474E1,-7.36E1,1E0,-6.213775E0,-9.493E1,7.481E1,1.95563E3,1.2E1,-5.229E1,6.34E0,9.17E0,3.352E1,-1.2245288E0,8.115229E0,-1.2759E2,3.845E1,2.3599333E3,4E0,2.3557067E-2,5.0132908E-2,-9.262665E-3,2.798531E-2,-5.063892E-2,-1.533581E-2,1.0342974E-2,-1.5812723E-2,1.5830683E-2,-2.6118789E-2,-1.5385819E-2,-3.9006326E-2,-1.6863221E-2,1.728723E-2,6.845224E-2,-2.7520765E-2,5.2232273E-2,2.4143267E-2,6.834839E-2,4.926545E-2,8.404735E-2,2.8063224E-3,-7.081787E-2,2.16254E-2,2.4652708E-2,-5.0991513E-2,5.6806665E-2,1.322792E-2,1.9560097E-2,-4.5280755E-2,2.3709442E-2,-8.241268E-3],"split_indices":[90,90,80,78,90,96,91,90,83,91,1,97,1,85,97,91,84,97,96,80,90,97,96,96,96,10,7,97,92,12,91,0,0,0,0,0,0,0,0,0,0,0,0,0,0,0,0,0,0,0,0,0,0,0,0,0,0,0,0,0,0,0,0],"split_type":[0,0,0,0,0,0,0,0,0,0,0,0,0,0,0,0,0,0,0,0,0,0,0,0,0,0,0,0,0,0,0,0,0,0,0,0,0,0,0,0,0,0,0,0,0,0,0,0,0,0,0,0,0,0,0,0,0,0,0,0,0,0,0],"sum_hessian":[3.462294E4,2.5277996E4,9.344946E3,1.57177E4,9.560297E3,7.340977E3,2.0039694E3,1.2860622E4,2.8570786E3,6.6899487E3,2.870348E3,7.1538647E3,1.8711223E2,8.2895514E2,1.1750142E3,6.5479136E3,6.3127085E3,6.8902704E2,2.1680515E3,1.3798981E3,5.310051E3,2.2638665E3,6.064815E2,1.692766E3,5.4610986E3,1.6001654E2,2.7095688E1,5.9211052E1,7.697441E2,2.489867E2,9.2602747E2,1.260781E3,5.2871323E3,6.947493E2,5.617959E3,1.5000244E2,5.390246E2,1.323566E3,8.444855E2,8.238158E2,5.560822E2,1.0998696E3,4.210181E3,4.956631E2,1.7682032E3,8.026823E0,5.984547E2,7.5401636E2,9.3874963E2,2.4353528E3,3.025746E3,1.5377128E1,1.4463942E2,2.5282646E1,1.8130403E0,2.1144365E1,3.806669E1,5.3851166E2,2.3123245E2,1.0610302E2,1.4288368E2,6.200615E2,3.0596594E2],"tree_param":{"num_deleted":"0","num_feature":"98","num_nodes":"63","size_leaf_vector":"1"}},{"base_weights":[-3.2902274E-1,-3.7984478E-1,-1.6813068E-1,-4.6306404E-1,-3.0553818E-1,-1.2876467E-1,-2.8917545E-1,-5.2095044E-1,-4.010864E-1,-2.658403E-1,-4.4793776E-1,-2.2903249E-1,-6.0259223E-2,-3.9507967E-1,-1.5391141E-1,-3.478947E-1,-5.400406E-1,-2.0367692E-1,-5.487867E-1,-3.8458452E-1,-1.8125021E-1,-4.741801E-1,-1.4397272E-1,-3.111514E-1,-1.13462254E-1,1.7424946E-1,-1.12854026E-1,-1.3746206E-1,-4.36512E-1,3.7533473E-2,-2.331708E-1,-5.151828E-2,-2.4165567E-2,-5.4437358E-2,-1.9582647E-3,-4.026365E-2,-1.5139373E-2,8.020262E-2,-5.516504E-2,-3.9298322E-2,2.87097E-2,2.8551478E-2,-1.9453606E-2,1.3114939E-2,-4.8714884E-2,-3.7070226E-2,3.5504453E-2,-3.7948396E-2,-1.4202363E-2,3.389469E-2,-1.4863801E-2,-2.1546704E-3,3.463597E-2,-1.8368812E-2,-2.5143062E-3,9.1243625E-2,-2.0719402E-2,-4.4753928E-2,6.5670304E-2,-2.6434833E-2,3.6537956E-2,-2.8765691E-2,1.5674533E-2],"categories":[],"categories_nodes":[],"categories_segments":[],"categories_sizes":[],"default_left":[0,0,0,0,0,0,0,0,0,0,0,0,0,0,0,0,0,0,0,0,0,0,0,0,0,0,0,0,0,0,0,0,0,0,0,0,0,0,0,0,0,0,0,0,0,0,0,0,0,0,0,0,0,0,0,0,0,0,0,0,0,0,0],"id":20,"left_children":[1,3,5,7,9,11,13,15,17,19,21,23,25,27,29,31,33,35,37,39,41,43,45,47,49,51,53,55,57,59,61,-1,-1,-1,-1,-1,-1,-1,-1,-1,-1,-1,-1,-1,-1,-1,-1,-1,-1,-1,-1,-1,-1,-1,-1,-1,-1,-1,-1,-1,-1,-1,-1],"loss_changes":[2.3438843E2,1.345957E2,3.2768555E1,3.6658203E1,6.496814E1,3.568328E1,2.4130539E1,1.735498E1,1.4471448E2,9.039398E1,1.99422E1,1.9980957E1,3.811717E1,1.00429535E1,1.1286188E1,9.301727E0,1.0770386E1,2.206865E1,1.1430847E1,2.1244019E1,3.268341E1,1.818872E1,2.2850485E1,1.4188972E1,1.4017564E1,1.9088923E1,1.5674297E1,9.896736E0,1.0118027E1,2.1718498E1,1.1214645E1,0E0,0E0,0E0,0E0,0E0,0E0,0E0,0E0,0E0,0E0,0E0,0E0,0E0,0E0,0E0,0E0,0E0,0E0,0E0,0E0,0E0,0E0,0E0,0E0,0E0,0E0,0E0,0E0,0E0,0E0,0E0,0E0],"parents":[2147483647,0,0,1,1,2,2,3,3,4,4,5,5,6,6,7,7,8,8,9,9,10,10,11,11,12,12,13,13,14,14,15,15,16,16,17,17,18,18,19,19,20,20,21,21,22,22,23,23,24,24,25,25,26,26,27,27,28,28,29,29,30,30],"right_children":[2,4,6,8,10,12,14,16,18,20,22,24,26,28,30,32,34,36,38,40,42,44,46,48,50,52,54,56,58,60,62,-1,-1,-1,-1,-1,-1,-1,-1,-1,-1,-1,-1,-1,-1,-1,-1,-1,-1,-1,-1,-1,-1,-1,-1,-1,-1,-1,-1,-1,-1,-1,-1],"split_conditions":[2.0703E3,1.69E0,1.8E1,1E1,1.8E1,8E0,6.635E1,1.72031E3,1.7E1,1.1E1,1.5460592E1,6.706E1,2.627E1,-2.2476585E1,2.3623113E3,4E0,1.1271E2,1E0,-8.261E1,1.3696071E0,1.61729E3,-7.256E1,4E0,2.61E0,-2.09751E0,-6.120433E-2,7.566E1,2.044905E3,2.220727E1,2.1745205E3,4.8026557E0,-5.151828E-2,-2.4165567E-2,-5.4437358E-2,-1.9582647E-3,-4.026365E-2,-1.5139373E-2,8.020262E-2,-5.516504E-2,-3.9298322E-2,2.87097E-2,2.8551478E-2,-1.9453606E-2,1.3114939E-2,-4.8714884E-2,-3.7070226E-2,3.5504453E-2,-3.7948396E-2,-1.4202363E-2,3.389469E-2,-1.4863801E-2,-2.1546704E-3,3.463597E-2,-1.8368812E-2,-2.5143062E-3,9.1243625E-2,-2.0719402E-2,-4.4753928E-2,6.5670304E-2,-2.6434833E-2,3.6537956E-2,-2.8765691E-2,1.5674533E-2],"split_indices":[80,89,90,90,90,90,96,79,90,90,84,96,96,85,11,90,96,91,93,9,81,93,91,89,8,9,96,11,84,13,10,0,0,0,0,0,0,0,0,0,0,0,0,0,0,0,0,0,0,0,0,0,0,0,0,0,0,0,0,0,0,0,0],"split_type":[0,0,0,0,0,0,0,0,0,0,0,0,0,0,0,0,0,0,0,0,0,0,0,0,0,0,0,0,0,0,0,0,0,0,0,0,0,0,0,0,0,0,0,0,0,0,0,0,0,0,0,0,0,0,0,0,0,0,0,0,0,0,0],"sum_hessian":[2.867162E4,2.1787951E4,6.8836675E3,1.0275137E4,1.1512815E4,5.195921E3,1.6877462E3,5.309096E3,4.966041E3,9.005222E3,2.5075935E3,2.1080852E3,3.0878357E3,9.4552875E2,7.4221747E2,5.2938153E2,4.7797144E3,2.1263877E3,2.839653E3,3.7448293E3,5.2603926E3,2.3077937E3,1.997997E2,1.2314097E3,8.7667566E2,5.6524036E2,2.5225955E3,1.3159792E2,8.1393085E2,2.1746767E2,5.247498E2,2.041188E2,3.2526273E2,4.740205E3,3.9509296E1,4.4110324E2,1.6852845E3,5.416899E0,2.8342363E3,3.698992E3,4.5837193E1,1.4501913E2,5.115373E3,4.8214554E1,2.259579E3,1.3755736E2,6.224234E1,8.761684E2,3.5524124E2,6.262284E1,8.140528E2,2.6483423E2,3.004061E2,1.3949556E3,1.1276399E3,7.443417E0,1.24154495E2,8.0638745E2,7.5434084E0,1.1331786E2,1.0414981E2,4.6064276E2,6.410703E1],"tree_param":{"num_deleted":"0","num_feature":"98","num_nodes":"63","size_leaf_vector":"1"}},{"base_weights":[7.687138E-2,-8.8868864E-2,1.4515656E-1,-1.8274924E-1,-4.1633595E-2,9.16293E-2,2.3262471E-1,-2.0569552E-1,4.8619412E-2,-5.5962205E-2,1.3514961E-1,1.9055153E-1,5.443629E-2,-1.7955525E-1,2.4918778E-1,-8.945009E-2,-2.5136936E-1,-2.637674E-1,1.9462748E-1,1.3881658E-2,-1.0382896E-1,7.7123865E-2,4.2729798E-1,-1.4975284E-1,2.3540382E-1,3.9875157E-2,2.640143E-1,-2.7544805E-1,-2.707071E-2,4.0981352E-1,2.1223003E-1,-1.1027908E-2,4.0486317E-2,-3.2124422E-2,-1.7470906E-2,4.785465E-3,-5.2008253E-2,9.559978E-2,1.3357966E-2,3.283823E-2,-5.0388306E-4,-1.635034E-2,-6.3628727E-3,-1.8954359E-2,1.227963E-2,1.8143933E-2,7.0681386E-2,-7.097766E-3,-4.1851204E-2,6.493239E-2,1.9097801E-2,-1.50006E-3,8.680967E-3,6.506867E-2,2.2057964E-2,-1.1387319E-2,-3.78317E-2,7.852128E-2,-7.546048E-3,6.0637373E-2,3.5200156E-2,1.9593567E-2,5.2555557E-2],"categories":[],"categories_nodes":[],"categories_segments":[],"categories_sizes":[],"default_left":[0,0,0,0,0,0,0,0,0,0,0,0,0,0,0,0,0,0,0,0,0,0,0,0,0,0,0,0,0,0,0,0,0,0,0,0,0,0,0,0,0,0,0,0,0,0,0,0,0,0,0,0,0,0,0,0,0,0,0,0,0,0,0],"id":21,"left_children":[1,3,5,7,9,11,13,15,17,19,21,23,25,27,29,31,33,35,37,39,41,43,45,47,49,51,53,55,57,59,61,-1,-1,-1,-1,-1,-1,-1,-1,-1,-1,-1,-1,-1,-1,-1,-1,-1,-1,-1,-1,-1,-1,-1,-1,-1,-1,-1,-1,-1,-1,-1,-1],"loss_changes":[3.800824E2,4.3447487E1,1.1133261E2,1.7422813E1,1.6524542E1,5.4280807E1,6.1682495E1,1.5821167E1,1.3585991E1,2.0168938E1,8.25956E0,6.157242E1,3.272042E1,5.101096E0,5.1441895E1,8.727283E0,1.14166565E1,7.6082835E0,9.298368E0,1.4603849E1,8.576447E0,5.008701E0,5.4270763E0,9.92321E0,6.538707E1,2.583399E1,1.1555885E1,3.520092E0,5.4046164E0,1.8224457E1,3.59346E1,0E0,0E0,0E0,0E0,0E0,0E0,0E0,0E0,0E0,0E0,0E0,0E0,0E0,0E0,0E0,0E0,0E0,0E0,0E0,0E0,0E0,0E0,0E0,0E0,0E0,0E0,0E0,0E0,0E0,0E0,0E0,0E0],"parents":[2147483647,0,0,1,1,2,2,3,3,4,4,5,5,6,6,7,7,8,8,9,9,10,10,11,11,12,12,13,13,14,14,15,15,16,16,17,17,18,18,19,19,20,20,21,21,22,22,23,23,24,24,25,25,26,26,27,27,28,28,29,29,30,30],"right_children":[2,4,6,8,10,12,14,16,18,20,22,24,26,28,30,32,34,36,38,40,42,44,46,48,50,52,54,56,58,60,62,-1,-1,-1,-1,-1,-1,-1,-1,-1,-1,-1,-1,-1,-1,-1,-1,-1,-1,-1,-1,-1,-1,-1,-1,-1,-1,-1,-1,-1,-1,-1,-1],"split_conditions":[1.4E0,8.9E-1,2.86E0,7.013E1,8.083E1,-4.886E1,5.05E0,-4.054E1,-1.479E1,-3.388E1,-4.38E0,5.05E0,5.128E1,-3.0848238E-1,-3.731E1,6.410562E1,3.479E1,-1.709E1,1.344E1,1.74543E3,3.479E1,-2.2739491E0,9.699E1,-2.599E1,5.01E0,1.8105E3,-2.175E1,-4.509E1,-1.5097E2,5.01E0,-3.77E0,-1.1027908E-2,4.0486317E-2,-3.2124422E-2,-1.7470906E-2,4.785465E-3,-5.2008253E-2,9.559978E-2,1.3357966E-2,3.283823E-2,-5.0388306E-4,-1.635034E-2,-6.3628727E-3,-1.8954359E-2,1.227963E-2,1.8143933E-2,7.0681386E-2,-7.097766E-3,-4.1851204E-2,6.493239E-2,1.9097801E-2,-1.50006E-3,8.680967E-3,6.506867E-2,2.2057964E-2,-1.1387319E-2,-3.78317E-2,7.852128E-2,-7.546048E-3,6.0637373E-2,3.5200156E-2,1.9593567E-2,5.2555557E-2],"split_indices":[89,89,89,96,96,97,96,97,97,97,97,96,92,9,93,4,96,95,92,82,96,84,96,95,92,81,97,95,97,92,97,0,0,0,0,0,0,0,0,0,0,0,0,0,0,0,0,0,0,0,0,0,0,0,0,0,0,0,0,0,0,0,0],"split_type":[0,0,0,0,0,0,0,0,0,0,0,0,0,0,0,0,0,0,0,0,0,0,0,0,0,0,0,0,0,0,0,0,0,0,0,0,0,0,0,0,0,0,0,0,0,0,0,0,0,0,0,0,0,0,0,0,0,0,0,0,0,0,0],"sum_hessian":[3.3581156E4,9.7984E3,2.3782756E4,3.2788325E3,6.519568E3,1.475518E4,9.027575E3,2.9830913E3,2.9574106E2,6.031395E3,4.8817255E2,4.0306738E3,1.0724506E4,3.4837027E2,8.679205E3,8.4229816E2,2.1407932E3,9.394263E1,2.0179843E2,2.452942E3,3.5784534E3,4.0833423E2,7.9838295E1,4.6910794E2,3.561566E3,1.0028904E4,6.956013E2,2.1337741E2,1.3499284E2,1.6215475E3,7.057657E3,8.0898663E2,3.3311543E1,1.1182931E3,1.0225002E3,4.27642E1,5.117843E1,1.3891236E1,1.879072E2,1.3826778E2,2.314674E3,1.4391172E3,2.1393362E3,5.9248745E1,3.490855E2,4.3353886E1,3.648441E1,3.6375342E2,1.0535453E2,3.4389005E2,3.2176758E3,4.623636E3,5.4052686E3,6.883395E1,6.2676733E2,8.382367E1,1.2955374E2,6.733623E0,1.2825922E2,3.6637775E2,1.2551697E3,6.7103154E3,3.4734192E2],"tree_param":{"num_deleted":"0","num_feature":"98","num_nodes":"63","size_leaf_vector":"1"}},{"base_weights":[1.8054545E-1,2.858407E-1,-5.1535852E-2,1.992016E-1,5.020238E-1,-1.6860156E-1,1.6627157E-1,3.1898713E-1,-1.3974385E-1,5.329308E-1,1.9660106E-1,-2.7718198E-2,-2.8874946E-1,2.5707874E-1,-3.4660175E-2,3.6141333E-1,3.5991356E-2,1.8154722E-1,-2.3260427E-1,5.743026E-1,3.618473E-1,2.8404605E-1,-1.7661466E-1,-3.7358713E-1,1.1495508E-2,-2.0204991E-1,-4.2667675E-1,4.0239742E-1,1.9695207E-1,1.1197653E-2,-4.195147E-1,4.701231E-2,2.8313061E-2,1.37828095E-2,-8.821543E-3,-5.0559253E-2,2.4413675E-2,-2.792706E-2,2.0531988E-2,4.6613213E-2,6.154828E-2,4.3315507E-2,3.153314E-3,3.757275E-2,4.92565E-3,7.822509E-2,-2.591449E-2,-4.8063677E-2,-2.0668624E-2,7.975256E-3,-2.1394825E-2,-2.7176766E-2,-5.862946E-3,-2.8481323E-2,-4.618698E-2,5.4719388E-3,4.589914E-2,2.9127115E-2,1.1262659E-2,1.4792415E-2,-6.9203856E-3,-4.449089E-2,4.6612736E-2],"categories":[],"categories_nodes":[],"categories_segments":[],"categories_sizes":[],"default_left":[0,0,0,0,0,0,0,0,0,0,0,0,0,0,0,0,0,0,0,0,0,0,0,0,0,0,0,0,0,0,0,0,0,0,0,0,0,0,0,0,0,0,0,0,0,0,0,0,0,0,0,0,0,0,0,0,0,0,0,0,0,0,0],"id":22,"left_children":[1,3,5,7,9,11,13,15,17,19,21,23,25,27,29,31,33,35,37,39,41,43,45,47,49,51,53,55,57,59,61,-1,-1,-1,-1,-1,-1,-1,-1,-1,-1,-1,-1,-1,-1,-1,-1,-1,-1,-1,-1,-1,-1,-1,-1,-1,-1,-1,-1,-1,-1,-1,-1],"loss_changes":[8.43068E2,4.4439832E2,2.7458755E2,6.879756E2,6.3983032E1,1.1855061E2,6.8701546E1,1.5030371E2,1.3206674E2,4.3426514E1,2.0463148E1,4.3744358E1,4.5118073E1,2.2577866E1,2.0701536E1,9.2519165E1,2.0671926E1,4.2819633E1,7.022267E1,2.1818481E1,2.832576E1,1.0897877E1,9.647363E0,5.768753E0,4.460514E1,2.321199E1,7.148407E0,1.488858E1,1.4570892E1,1.1540085E1,3.0160713E0,0E0,0E0,0E0,0E0,0E0,0E0,0E0,0E0,0E0,0E0,0E0,0E0,0E0,0E0,0E0,0E0,0E0,0E0,0E0,0E0,0E0,0E0,0E0,0E0,0E0,0E0,0E0,0E0,0E0,0E0,0E0,0E0],"parents":[2147483647,0,0,1,1,2,2,3,3,4,4,5,5,6,6,7,7,8,8,9,9,10,10,11,11,12,12,13,13,14,14,15,15,16,16,17,17,18,18,19,19,20,20,21,21,22,22,23,23,24,24,25,25,26,26,27,27,28,28,29,29,30,30],"right_children":[2,4,6,8,10,12,14,16,18,20,22,24,26,28,30,32,34,36,38,40,42,44,46,48,50,52,54,56,58,60,62,-1,-1,-1,-1,-1,-1,-1,-1,-1,-1,-1,-1,-1,-1,-1,-1,-1,-1,-1,-1,-1,-1,-1,-1,-1,-1,-1,-1,-1,-1,-1,-1],"split_conditions":[2.49E0,1.8E1,1.7E1,1.1E1,2.40196E3,1.1E1,4.32E0,2.22265E3,1E0,4E0,4E0,-5.384E1,2.0098E3,1.8263096E3,9.08E0,5E0,6E0,-3.83E1,1.6E1,2E1,1.9708845E3,2.3E1,2.3386697E3,-1.5840632E0,3.936E1,1.6E1,1E0,1.65416E3,5.8E-1,1.95563E3,-7.7E-1,4.701231E-2,2.8313061E-2,1.37828095E-2,-8.821543E-3,-5.0559253E-2,2.4413675E-2,-2.792706E-2,2.0531988E-2,4.6613213E-2,6.154828E-2,4.3315507E-2,3.153314E-3,3.757275E-2,4.92565E-3,7.822509E-2,-2.591449E-2,-4.8063677E-2,-2.0668624E-2,7.975256E-3,-2.1394825E-2,-2.7176766E-2,-5.862946E-3,-2.8481323E-2,-4.618698E-2,5.4719388E-3,4.589914E-2,2.9127115E-2,1.1262659E-2,1.4792415E-2,-6.9203856E-3,-4.449089E-2,4.6612736E-2],"split_indices":[89,90,90,90,82,90,89,82,91,91,91,93,82,11,89,90,90,93,90,90,12,90,11,83,92,90,91,81,87,82,93,0,0,0,0,0,0,0,0,0,0,0,0,0,0,0,0,0,0,0,0,0,0,0,0,0,0,0,0,0,0,0,0],"split_type":[0,0,0,0,0,0,0,0,0,0,0,0,0,0,0,0,0,0,0,0,0,0,0,0,0,0,0,0,0,0,0,0,0,0,0,0,0,0,0,0,0,0,0,0,0,0,0,0,0,0,0,0,0,0,0,0,0,0,0,0,0,0,0],"sum_hessian":[3.4497973E4,2.3730994E4,1.0766979E4,1.6942797E4,6.7881963E3,7.0031807E3,3.7637979E3,1.2518674E4,4.4241226E3,6.163719E3,6.2447723E2,3.2240017E3,3.7791787E3,2.592079E3,1.1717189E3,1.0886338E4,1.6323363E3,9.917559E2,3.4323667E3,4.9615483E3,1.2021705E3,5.061293E2,1.1834793E2,3.27438E2,2.8965637E3,2.322037E3,1.4571416E3,7.569448E2,1.8351342E3,1.0478339E3,1.2388506E2,4.5553716E3,6.3309663E3,8.968787E2,7.3545764E2,8.220371E1,9.0955225E2,3.1021555E3,3.3021133E2,1.371435E3,3.5901135E3,9.884698E2,2.1370078E2,3.635635E2,1.425658E2,8.707124E0,1.0964081E2,1.9834225E2,1.2909572E2,2.2238887E3,6.7267505E2,1.561894E3,7.6014307E2,2.914394E2,1.1657021E3,1.0623996E2,6.507049E2,8.650788E2,9.7005536E2,3.8769708E2,6.601368E2,1.20915665E2,2.9693983E0],"tree_param":{"num_deleted":"0","num_feature":"98","num_nodes":"63","size_leaf_vector":"1"}},{"base_weights":[-3.1405085E-1,-3.630514E-1,-1.4874503E-1,-4.0497452E-1,-2.9723793E-1,-2.0095716E-1,-7.871478E-2,-4.419E-1,-3.2667902E-1,-3.2670453E-1,-2.0345573E-1,-1.0886564E-1,-2.957737E-1,-4.6948977E-3,-2.6994443E-1,-4.953904E-1,-3.9179865E-1,-1.3579628E-1,-3.398175E-1,-3.513237E-1,-2.1973234E-1,-2.1842271E-1,2.1462086E-1,-2.4123189E-1,-4.9765192E-2,-3.5549727E-1,-1.6765177E-1,-9.637634E-2,4.6760345E-1,-1.994093E-1,-5.1260173E-1,1.7841715E-2,-4.9783643E-2,-3.9641056E-2,1.8431554E-2,-1.8107342E-2,8.881985E-2,-3.234621E-2,-4.5829948E-2,1.3085728E-2,-3.5656054E-2,-2.297473E-2,2.7066762E-2,6.8973556E-2,-2.2577647E-2,5.665664E-2,-3.0865287E-2,4.575611E-2,-2.955391E-2,9.522195E-3,-1.3270417E-2,3.4955617E-2,-3.7120633E-2,1.6946247E-2,-2.4998842E-2,1.0364861E-2,-1.4526943E-2,1.3768604E-1,3.7962448E-2,-2.1386521E-2,8.893629E-2,-3.8287114E-2,-6.489632E-2],"categories":[],"categories_nodes":[],"categories_segments":[],"categories_sizes":[],"default_left":[0,0,0,0,0,0,0,0,0,0,0,0,0,0,0,0,0,0,0,0,0,0,0,0,0,0,0,0,0,0,0,0,0,0,0,0,0,0,0,0,0,0,0,0,0,0,0,0,0,0,0,0,0,0,0,0,0,0,0,0,0,0,0],"id":23,"left_children":[1,3,5,7,9,11,13,15,17,19,21,23,25,27,29,31,33,35,37,39,41,43,45,47,49,51,53,55,57,59,61,-1,-1,-1,-1,-1,-1,-1,-1,-1,-1,-1,-1,-1,-1,-1,-1,-1,-1,-1,-1,-1,-1,-1,-1,-1,-1,-1,-1,-1,-1,-1,-1],"loss_changes":[2.267898E2,5.9479736E1,2.3403564E1,3.799707E1,2.317212E1,3.2001694E1,3.8745247E1,2.3823486E1,1.0566895E1,1.6770203E1,1.2643974E1,1.4559328E1,1.376738E1,8.554216E1,1.2971874E1,7.2265625E0,1.2381287E1,1.2872961E1,7.522827E0,1.3173767E1,5.953335E0,1.3139076E1,1.3081852E1,2.1944363E1,1.5512507E1,1.3770477E1,1.6041672E1,1.6194206E1,2.516755E1,9.530836E0,2.7835388E0,0E0,0E0,0E0,0E0,0E0,0E0,0E0,0E0,0E0,0E0,0E0,0E0,0E0,0E0,0E0,0E0,0E0,0E0,0E0,0E0,0E0,0E0,0E0,0E0,0E0,0E0,0E0,0E0,0E0,0E0,0E0,0E0],"parents":[2147483647,0,0,1,1,2,2,3,3,4,4,5,5,6,6,7,7,8,8,9,9,10,10,11,11,12,12,13,13,14,14,15,15,16,16,17,17,18,18,19,19,20,20,21,21,22,22,23,23,24,24,25,25,26,26,27,27,28,28,29,29,30,30],"right_children":[2,4,6,8,10,12,14,16,18,20,22,24,26,28,30,32,34,36,38,40,42,44,46,48,50,52,54,56,58,60,62,-1,-1,-1,-1,-1,-1,-1,-1,-1,-1,-1,-1,-1,-1,-1,-1,-1,-1,-1,-1,-1,-1,-1,-1,-1,-1,-1,-1,-1,-1,-1,-1],"split_conditions":[2.0804E3,1E0,6.635E1,6.1E-1,7.7E-1,3.377E1,-8.6E0,3.7E-1,1.70713E3,9.3E-1,2.06579E1,-1.5258355E0,-2.707E1,-8.49E0,2.69535E3,1.61729E3,1.3084E2,4.22706E0,-7.4E0,-7.234E1,4.61E0,1.6350376E3,-7.22E0,-9.501E1,-8.034E1,-1.1073E2,2.36414E3,-1.8415089E0,-9.01E0,2.65342E3,6.1009277E1,1.7841715E-2,-4.9783643E-2,-3.9641056E-2,1.8431554E-2,-1.8107342E-2,8.881985E-2,-3.234621E-2,-4.5829948E-2,1.3085728E-2,-3.5656054E-2,-2.297473E-2,2.7066762E-2,6.8973556E-2,